-3.966340795159339905e-02 -1.678857766091823578e-02 4.699864948634058237e-04 3.993453085422515869e-02 -4.892234574072062969e-04 -1.421926449984312057e-02 -7.007907330989837646e-02 8.130290545523166656e-03 -3.222927451133728027e-02 -4.549330472946166992e-02 5.837812647223472595e-02 -5.729256570339202881e-02 -1.044199056923389435e-02 -1.026460602879524231e-01 -1.068025082349777222e-02 -4.278869181871414185e-02 -7.269375026226043701e-02 5.038537085056304932e-02 2.940594963729381561e-02 3.265731409192085266e-02 -1.467700023204088211e-02 -1.525579392910003662e-02 -2.146127261221408844e-02 4.164536297321319580e-02 2.416974306106567383e-02 -8.065251260995864868e-02 3.432497754693031311e-02 -1.899497769773006439e-02 -5.909046158194541931e-02 -1.262259930372238159e-01 1.444029714912176132e-02 2.069382695481181145e-03 3.152937814593315125e-02 -4.381518438458442688e-02 -7.199364900588989258e-02 2.646443061530590057e-02 -4.819959029555320740e-02 -7.421416044235229492e-02 3.894783928990364075e-02 -4.608017206192016602e-02 -2.928939647972583771e-02 -4.938800632953643799e-02 -1.402442157268524170e-01 -3.211357817053794861e-02 -6.462220847606658936e-02 -1.090014446526765823e-02 4.083062708377838135e-02 1.423433423042297363e-02 -1.767752319574356079e-02 -3.012010641396045685e-02 1.765192300081253052e-02 -4.124515876173973083e-02 -4.474837332963943481e-02 -4.127369821071624756e-02 3.961884975433349609e-02 4.394365474581718445e-02 1.428304612636566162e-02 -4.655304923653602600e-02 -7.409699261188507080e-02 -2.649566717445850372e-02 -3.815069794654846191e-02 3.226231411099433899e-02 4.063019528985023499e-02 -6.622353196144104004e-02 -2.547650597989559174e-02 1.874176785349845886e-02 4.401608929038047791e-02 -9.474520571529865265e-03 -1.775920018553733826e-02 -1.173935607075691223e-01 -2.273803576827049255e-03 -4.731147363781929016e-02 1.113809831440448761e-02 -2.657145261764526367e-02 3.644087538123130798e-02 -5.031523108482360840e-02 1.988420821726322174e-02 6.350896507501602173e-02 9.913873858749866486e-03 -9.154878789559006691e-04 -2.009980976581573486e-01 -1.636519283056259155e-02 -5.579952150583267212e-02 -2.659713104367256165e-02 2.957921102643013000e-02 -8.080489188432693481e-02 -4.039365053176879883e-02 -4.135382175445556641e-02 1.401275303214788437e-02 -1.007918734103441238e-02 4.133339226245880127e-02 7.502914872020483017e-03 5.638475716114044189e-02 -1.020453125238418579e-02 -4.132402315735816956e-02 -5.125005170702934265e-02 -2.269877307116985321e-02 5.803871154785156250e-02 -2.850821055471897125e-02 -6.758030503988265991e-02 -9.733112901449203491e-02 -1.311863539740443230e-03 4.357407242059707642e-02 -4.423095658421516418e-02 -1.035174541175365448e-02 -7.995416410267353058e-03 7.571793626993894577e-03 1.824134215712547302e-02 4.083781316876411438e-02 -1.684543490409851074e-02 -4.908744711428880692e-03 -2.148941904306411743e-02 -2.709078043699264526e-02 -2.031277492642402649e-02 -2.128328569233417511e-02 4.084606096148490906e-02 1.401892770081758499e-02 2.040952444076538086e-03 -3.577240556478500366e-02 -2.434995397925376892e-02 2.373414300382137299e-02 4.022194072604179382e-03 -8.952957391738891602e-02 -1.368795521557331085e-02 5.699157714843750000e-03 4.624160379171371460e-02 3.025467507541179657e-02 -3.241583332419395447e-02 2.952286042273044586e-02 8.014907129108905792e-03 -1.044755242764949799e-02 -6.958346813917160034e-02 -8.851037360727787018e-03 3.025970607995986938e-02 1.569225266575813293e-02 -7.106874883174896240e-02 -7.443403825163841248e-03 -3.990772739052772522e-02 -8.577515371143817902e-03 2.272135205566883087e-02 2.629488520324230194e-02 3.945359494537115097e-04 -1.829768531024456024e-02 -7.775345817208290100e-03 -7.624123990535736084e-02 4.082228988409042358e-02 -3.394772112369537354e-02 1.922778412699699402e-02 -2.302160114049911499e-02 -2.010150812566280365e-02 3.431997448205947876e-02 -2.591670118272304535e-02 -5.025509744882583618e-02 4.523131251335144043e-02 -2.274852618575096130e-02 1.000968217849731445e-01 6.675726920366287231e-02 -3.654812648892402649e-02 -4.123407229781150818e-02 1.988944970071315765e-02 -4.288156330585479736e-02 -4.953641816973686218e-02 -2.387645840644836426e-02 -3.450645506381988525e-02 3.296969830989837646e-02 5.007455497980117798e-02 -8.704411238431930542e-02 -1.073830109089612961e-02 -4.781881347298622131e-02 5.233364924788475037e-02 2.420195192098617554e-02 -9.061009436845779419e-02 6.642163731157779694e-03 1.685048826038837433e-02 5.558773875236511230e-03 3.697296604514122009e-02 3.250445052981376648e-02 4.615790769457817078e-02 2.066105604171752930e-02 1.584230177104473114e-02 2.021981636062264442e-03 -2.035158831859007478e-04 -5.613916739821434021e-02 -5.089884623885154724e-02 9.770419448614120483e-03 -3.912890702486038208e-02 -3.568759188055992126e-02 5.086831003427505493e-02 -2.721040137112140656e-02 -3.715787082910537720e-02 1.361269317567348480e-02 5.143748223781585693e-02 -8.542608469724655151e-02 -8.772389590740203857e-02 3.361516445875167847e-02 5.697505548596382141e-02 1.686956174671649933e-02 1.998708769679069519e-02 2.333597652614116669e-02 2.179370261728763580e-02 3.553703799843788147e-02 3.765205293893814087e-02 1.350831054151058197e-02 -1.008559484034776688e-02 1.153787691146135330e-02 3.372412174940109253e-02 -1.103757414966821671e-02 -7.245559245347976685e-03 -1.591591909527778625e-02 4.627078771591186523e-03 -1.111274119466543198e-02 -4.720241203904151917e-02 1.219147350639104843e-02 -2.594951726496219635e-02 -6.942803412675857544e-02 -5.469797179102897644e-02 3.244582191109657288e-02 5.914652720093727112e-02 5.706913769245147705e-02 -3.152688592672348022e-02 3.363392874598503113e-02 -2.003820613026618958e-02 -1.531382650136947632e-02 4.239183850586414337e-03 -4.474892467260360718e-02 -9.780959039926528931e-02 2.986669354140758514e-02 -7.956772111356258392e-03 4.708043113350868225e-02 1.870444603264331818e-02 -4.050084576010704041e-02 -2.972320280969142914e-02 2.598627842962741852e-02 -6.409668177366256714e-02 3.560466691851615906e-02 1.586966961622238159e-02 4.952976107597351074e-02 -3.994516283273696899e-02 -2.610656246542930603e-02 -2.350073680281639099e-02 2.134332992136478424e-02 -1.391793787479400635e-02 4.395676031708717346e-02 -4.750537045765668154e-04 5.022399127483367920e-02 2.066759020090103149e-02 -3.752991184592247009e-02 -2.575228922069072723e-02 -1.198151186108589172e-01 -2.979745343327522278e-02 -4.240191727876663208e-02 8.415412157773971558e-02 1.138064265251159668e-01 -5.686677992343902588e-02 -1.387348491698503494e-02 1.150672789663076401e-02 -6.582492496818304062e-03 9.125755168497562408e-03 -1.458672899752855301e-02 5.092280358076095581e-02 -1.039330940693616867e-02 -4.508568346500396729e-02 1.641165278851985931e-02 -1.222884398885071278e-03 5.605842173099517822e-02 -3.519734740257263184e-02 -2.510313503444194794e-02 -3.133066231384873390e-03 4.855919256806373596e-02 7.693082839250564575e-02 -9.129606932401657104e-02 -3.164817020297050476e-02 2.848503179848194122e-02 -3.596543520689010620e-02 -3.713859990239143372e-02 1.178481616079807281e-02 -7.171102613210678101e-02 -4.579637572169303894e-02 -3.218284249305725098e-02 6.009035557508468628e-02 1.876780577003955841e-02 -5.676953587681055069e-03 -3.686096891760826111e-02 2.329983003437519073e-02 -4.408413171768188477e-02 1.648715138435363770e-02 -3.766391426324844360e-02 -7.716591656208038330e-02 -3.148609772324562073e-02 -1.502292137593030930e-02 -5.031198635697364807e-02 -5.173739511519670486e-03 -2.098426222801208496e-02 5.082132294774055481e-02 -1.149374898523092270e-02 5.037742108106613159e-02 3.698167204856872559e-02 -8.724040538072586060e-02 -4.756208881735801697e-02 4.078453406691551208e-02 -2.061641542240977287e-03 -7.694036234170198441e-03 7.032906264066696167e-02 1.953267306089401245e-02 3.784383088350296021e-02 -1.314346399158239365e-02 -3.394323587417602539e-02 7.871040143072605133e-03 8.327655494213104248e-03 -1.494633220136165619e-02 4.084775224328041077e-02 -3.366242721676826477e-02 -9.003350511193275452e-03 -1.130540110170841217e-02 -7.608391344547271729e-02 2.617114409804344177e-02 2.005986124277114868e-02 5.398082081228494644e-03 -3.978233039379119873e-02 1.802995242178440094e-02 1.935842633247375488e-02 -5.821339786052703857e-03 -3.262931481003761292e-02 -7.054952904582023621e-03 -1.675373502075672150e-02 -3.815736994147300720e-02 -3.028124570846557617e-02 2.592807076871395111e-02 -4.715432971715927124e-02 3.135540336370468140e-02 -5.429259687662124634e-02 -3.310705348849296570e-02 -6.847401708364486694e-02 -3.673320636153221130e-02 3.939778730273246765e-02 1.840021647512912750e-02 3.672491759061813354e-02 -2.269544079899787903e-02 -1.567245274782180786e-02 3.178990632295608521e-02 5.349770933389663696e-02 -3.848536638543009758e-03 5.482960492372512817e-03 9.522322565317153931e-03 -4.869157820940017700e-02 -2.537231706082820892e-02 -1.005800366401672363e-01 -2.543417736887931824e-02 9.595432202331721783e-04 -5.445700604468584061e-03 4.894264787435531616e-02 3.634836524724960327e-02 -7.556629180908203125e-02 -3.154259547591209412e-02 -7.696750760078430176e-02 6.809313781559467316e-04 -3.944716230034828186e-02 -1.676397770643234253e-02 -8.923149853944778442e-02 3.245031228289008141e-03 -1.673198863863945007e-02 -2.893626689910888672e-02 -1.156651228666305542e-01 3.356007859110832214e-02 3.613120689988136292e-02 -6.894148141145706177e-02 2.740362659096717834e-02 -3.426648676395416260e-02 3.626427426934242249e-02 -4.824769496917724609e-02 -1.057262811809778214e-02 -1.750936382450163364e-03 1.566250622272491455e-02 2.576570585370063782e-02 -4.742603003978729248e-02 -6.898266822099685669e-02 3.340693563222885132e-02 -1.253761500120162964e-01 4.834653064608573914e-02 -5.217058584094047546e-02 -3.454278409481048584e-02 -6.052066385746002197e-02 2.243022248148918152e-02 1.525059342384338379e-03 8.464326150715351105e-03 -5.291469395160675049e-03 -5.332559719681739807e-02 1.681688800454139709e-02 -2.602151781320571899e-02 2.723045833408832550e-02 2.914715185761451721e-02 -1.578625664114952087e-02 1.081358641386032104e-02 5.823674798011779785e-02 5.848117172718048096e-02 -1.097156945616006851e-02 3.062538616359233856e-02 1.807499863207340240e-02 4.629227891564369202e-02 -3.972611203789710999e-02 7.707363693043589592e-04 -9.123836457729339600e-02 -8.714050799608230591e-02 3.051364235579967499e-02 -1.780570112168788910e-02 -5.803916975855827332e-02 -9.518504142761230469e-02 3.578916564583778381e-02 -2.641879953444004059e-02 -7.308831065893173218e-02 -1.145654730498790741e-02 -1.516087353229522705e-02 1.958450861275196075e-02 -4.666346311569213867e-02 1.639420725405216217e-02 6.660835817456245422e-03 -2.108632586896419525e-02 4.389023780822753906e-02 -6.808526813983917236e-03 3.640219569206237793e-02 -1.132538728415966034e-02 2.496513165533542633e-02 2.139187604188919067e-02 1.842364855110645294e-02 3.894570469856262207e-02 -3.144482150673866272e-02 -2.771352976560592651e-02 5.544129014015197754e-02 -7.668245118111371994e-03 -3.980828821659088135e-02 -8.888322860002517700e-02 -9.399501234292984009e-02 -3.727000206708908081e-02 -2.577209379523992538e-03 -2.272815210744738579e-03 -6.880071759223937988e-02 -8.203345350921154022e-03 3.013154678046703339e-02 2.573307603597640991e-02 9.325648657977581024e-03 3.383107855916023254e-02 1.713283360004425049e-02 -3.105219453573226929e-02 4.465432465076446533e-02 -2.156084403395652771e-02 -7.484840601682662964e-02 1.094328705221414566e-02 2.638524025678634644e-02 -6.043818220496177673e-02 1.854544132947921753e-02 8.109716698527336121e-03 -4.761372506618499756e-02 5.013296753168106079e-02 -7.062431424856185913e-02 -4.442515596747398376e-02 7.399220485240221024e-03 6.760380417108535767e-02 3.335990756750106812e-02 1.029252558946609497e-01 2.138950489461421967e-02 -7.249703258275985718e-02 -1.518892683088779449e-02 3.191917389631271362e-02 5.044409632682800293e-02 2.948801778256893158e-02 4.449095204472541809e-02 -3.183614462614059448e-02 -6.350283324718475342e-02 -2.430408494547009468e-03 -6.699900608509778976e-03 -1.804434135556221008e-02 1.502002030611038208e-02 -2.249099127948284149e-02 1.369225885719060898e-02 2.950808592140674591e-02 -2.424005605280399323e-02 1.552854850888252258e-02 1.528336945921182632e-02 4.804033233085647225e-05 -3.399234265089035034e-02 -5.080027133226394653e-02 -7.542439270764589310e-03 1.973088644444942474e-02 -4.428025707602500916e-02 -4.211704432964324951e-02 1.459520030766725540e-02 -7.310384884476661682e-03 -1.044706627726554871e-02 -1.016764901578426361e-02 -3.057485260069370270e-02 -8.700884878635406494e-02 -6.313745677471160889e-02 5.173295270651578903e-03 -6.821331381797790527e-02 -3.705067932605743408e-02 -3.959559276700019836e-02 -1.148326322436332703e-02 -7.789273746311664581e-03 -2.947133406996726990e-02 1.383369509130716324e-02 -5.702486261725425720e-02 -1.892749033868312836e-02 9.049114584922790527e-02 -6.111498922109603882e-03 4.492580145597457886e-02 -3.976798430085182190e-02 3.856384009122848511e-02 -6.191583350300788879e-02 -2.507518604397773743e-02 -1.221972778439521790e-01 -3.411354497075080872e-02 -2.229920029640197754e-02 -6.426288187503814697e-02 7.528354972600936890e-02 -2.706767618656158447e-02 1.995876245200634003e-02 7.128151133656501770e-03 -1.934188418090343475e-02 1.064701704308390617e-03 2.054529264569282532e-02 2.456778893247246742e-03 -6.853643059730529785e-02 -3.459640592336654663e-02 -2.816095389425754547e-02 1.739444211125373840e-02 2.943622320890426636e-02 4.296655766665935516e-03 5.907208472490310669e-02 -2.805090695619583130e-02 1.340010855346918106e-02 5.614199489355087280e-02 2.262200927361845970e-03 7.382734119892120361e-02 3.810601308941841125e-02 -6.526708602905273438e-02 -7.355126738548278809e-02 -6.599161028861999512e-02 -5.211176350712776184e-02 -1.484265737235546112e-02 1.554038189351558685e-02 -9.419152513146400452e-03 1.710396446287631989e-02 -1.119740307331085205e-01 1.891365274786949158e-02 -4.514034837484359741e-02 -8.143961429595947266e-02 -3.581463173031806946e-02 -2.209724485874176025e-02 4.907202906906604767e-03 4.395945742726325989e-02 1.394357718527317047e-02 -3.954958915710449219e-02 -2.371156774461269379e-02 1.890950836241245270e-02 -6.141842529177665710e-02 -6.452135741710662842e-02 3.460330888628959656e-02 2.056379802525043488e-02 2.126950956881046295e-02 7.555990014225244522e-03 4.925339668989181519e-02 5.903182085603475571e-03 4.195254668593406677e-02 -4.461332783102989197e-02 2.659402973949909210e-02 4.300580359995365143e-03 -2.446088381111621857e-02 -6.481350958347320557e-02 3.417238220572471619e-02 -1.495575439184904099e-02 2.798704197630286217e-03 6.890079006552696228e-03 -2.816515043377876282e-02 -1.539100660011172295e-03 -2.379666455090045929e-02 -4.350505769252777100e-02 -1.194446720182895660e-02 1.848279312252998352e-02 -6.227084994316101074e-02 -4.703986272215843201e-02 1.508438587188720703e-02 -7.742466777563095093e-02 9.163794107735157013e-03 -1.218464151024818420e-01 -9.170658886432647705e-03 6.344458670355379581e-04 -1.534401811659336090e-02 -4.774339869618415833e-02 3.093992732465267181e-02 -5.004015192389488220e-02 4.428836330771446228e-02 -8.371386677026748657e-03 4.030080884695053101e-02 1.412856485694646835e-02 -2.013701247051358223e-03 6.032174453139305115e-02 -2.864502929151058197e-02 1.935536228120326996e-02 1.363544911146163940e-02 3.960302099585533142e-02 2.481190115213394165e-02 4.982320591807365417e-03 -4.025669395923614502e-02 -1.226200163364410400e-01 -1.413797736167907715e-01 5.288955941796302795e-02 -3.728941828012466431e-02 4.099125508219003677e-03 -5.463976878672838211e-03 -7.573019713163375854e-02 -3.478238731622695923e-02 -2.069785632193088531e-02 9.691511839628219604e-02 4.343621898442506790e-03 -8.068460039794445038e-03 -4.728335514664649963e-02 -5.394229665398597717e-02 -2.020380052272230387e-04 -2.540543116629123688e-02 -5.784380249679088593e-03 5.449877679347991943e-02 -4.070407152175903320e-02 -1.474160701036453247e-01 7.737423479557037354e-02 -3.892090171575546265e-02 -1.047276332974433899e-02 1.418848149478435516e-02 -2.325804671272635460e-03 -1.405833065509796143e-01 1.932656578719615936e-02 7.780406624078750610e-02 -3.366799326613545418e-03 5.235266406089067459e-03 1.864825375378131866e-03 2.070856466889381409e-02 -5.956183746457099915e-02 5.219542607665061951e-02 8.808804675936698914e-03 4.853444173932075500e-02 7.620404660701751709e-02 8.202832937240600586e-02 -4.178190603852272034e-02 -4.454991593956947327e-02 -5.423824116587638855e-02 -1.305982619524002075e-01 1.430928148329257965e-02 -2.060418389737606049e-02 6.921169161796569824e-02 -2.061736024916172028e-02 -1.351102590560913086e-01 3.111368790268898010e-02 6.392259895801544189e-02 -1.272910460829734802e-02 -4.442021623253822327e-02 -2.741135098040103912e-02 -4.533879458904266357e-03 1.476539205759763718e-02 -3.089714609086513519e-02 -3.625408560037612915e-02 -9.706329554319381714e-03 1.125339418649673462e-02 -4.551051929593086243e-02 -5.934732779860496521e-02 -3.643684834241867065e-02 3.538923105224967003e-03 -4.491434618830680847e-02 3.361663967370986938e-02 -1.128799654543399811e-02 -3.647391870617866516e-02 -9.892857819795608521e-02 3.028805553913116455e-02 -5.469286814332008362e-02 -6.687452644109725952e-02 3.669965639710426331e-02 -8.336857706308364868e-02 1.420727837830781937e-02 4.797486215829849243e-02 -6.558849662542343140e-02 -2.366984076797962189e-02 -6.579863280057907104e-02 -5.069521069526672363e-02 -5.322842672467231750e-02 3.641312569379806519e-02 2.808870933949947357e-02 -1.202853675931692123e-02 -8.652148768305778503e-03 1.150788366794586182e-02 -4.303952306509017944e-02 -1.952080801129341125e-02 -8.291363716125488281e-02 2.106554433703422546e-02 4.512907471507787704e-03 7.031485438346862793e-02 3.847623476758599281e-03 -1.307005807757377625e-02 5.613523721694946289e-02 7.144740968942642212e-02 3.760342253372073174e-03 3.643824905157089233e-02 2.236527204513549805e-02 -5.881420522928237915e-02 -1.884833723306655884e-02 5.526598915457725525e-02 3.999921679496765137e-02 -3.448346629738807678e-02 4.325466230511665344e-02 -2.371059358119964600e-02 -1.510497555136680603e-02 8.171029388904571533e-02 -4.138208925724029541e-02 -3.360952436923980713e-02 7.065578550100326538e-02 2.178717777132987976e-02 3.683663904666900635e-02 -6.153094395995140076e-02 -8.175507187843322754e-03 2.002364397048950195e-02 -2.013746090233325958e-02 -3.109089098870754242e-03 -6.079516187310218811e-02 -1.721311360597610474e-02 -7.759366650134325027e-03 1.309785805642604828e-02 1.877386309206485748e-02 -4.650423675775527954e-02 1.951376325450837612e-04 -3.223521634936332703e-02 7.511567324399948120e-03 4.652621597051620483e-02 4.270546883344650269e-02 -5.613416433334350586e-02 -2.605931647121906281e-02 -5.020521581172943115e-02 -7.042087614536285400e-02 1.862221024930477142e-02 -2.672945149242877960e-02 4.098503291606903076e-02 -7.398578338325023651e-03 -5.883703380823135376e-02 3.495290875434875488e-02 6.030601263046264648e-02 2.321857959032058716e-02 1.526275463402271271e-02 -4.237953945994377136e-02 1.541590876877307892e-02 5.330773815512657166e-02 3.261385485529899597e-02 -3.808953613042831421e-02 2.358262985944747925e-02 -2.651127800345420837e-02 -1.217173971235752106e-02 6.064826156944036484e-03 -3.818778693675994873e-02 1.919833011925220490e-02 2.577845007181167603e-02 -2.093553729355335236e-02 4.781374707818031311e-02 8.183066733181476593e-03 1.469422131776809692e-02 -4.852216318249702454e-02 -5.873430892825126648e-02 3.927505016326904297e-02 -8.832196146249771118e-02 -3.001245670020580292e-02 -6.106838956475257874e-02 1.359435077756643295e-02 2.656987868249416351e-02 -2.273479476571083069e-02 -5.019897595047950745e-02 -1.547113526612520218e-02 3.420319780707359314e-02 -6.170163676142692566e-02 -2.210696600377559662e-02 -1.275376603007316589e-02 2.335834503173828125e-02 -1.072123460471630096e-02 -6.067689508199691772e-02 2.160611795261502266e-03 -3.329633548855781555e-02 2.749501168727874756e-02 9.081199765205383301e-02 -3.700358793139457703e-02 -8.924403041601181030e-02 2.262028306722640991e-02 -5.446901917457580566e-02 -3.203856060281395912e-03 -2.304918691515922546e-02 2.160797081887722015e-02 -8.793417364358901978e-02 5.670359358191490173e-02 3.324499353766441345e-02 -2.957957983016967773e-02 -6.615206599235534668e-02 -4.296512529253959656e-02 2.560357749462127686e-02 -5.099112540483474731e-02 2.024918608367443085e-02 -3.538598865270614624e-02 -1.721777208149433136e-02 1.187568809837102890e-02 7.970639318227767944e-02 3.055119514465332031e-02 -9.081508032977581024e-03 5.873460322618484497e-02 1.594002172350883484e-02 -5.162183195352554321e-02 -7.928615435957908630e-03 -6.452502310276031494e-02 -4.486251249909400940e-02 1.565655693411827087e-02 -7.638966292142868042e-02 4.129813984036445618e-02 -5.230952985584735870e-03 3.116613626480102539e-02 -1.843546889722347260e-02 -6.722231209278106689e-02 8.668985962867736816e-02 -4.434072971343994141e-02 1.862386614084243774e-02 -1.103731617331504822e-02 2.328806370496749878e-02 -6.267423741519451141e-04 2.125598676502704620e-02 -6.150412932038307190e-02 -2.708698622882366180e-03 -7.334262877702713013e-02 -4.655956849455833435e-02 4.449165984988212585e-02 -4.170696064829826355e-02 -7.729024440050125122e-02 3.742967965081334114e-03 -2.282995358109474182e-02 1.403860002756118774e-02 -9.268386662006378174e-02 -9.233881719410419464e-03 -6.653329730033874512e-02 1.429986115545034409e-02 3.949657082557678223e-02 -7.112715393304824829e-02 -3.290312737226486206e-02 2.159377001225948334e-02 3.775097429752349854e-02 -1.069221179932355881e-02 -8.428541012108325958e-03 -1.115017849951982498e-02 -5.341986939311027527e-02 -2.861332613974809647e-03 -3.714879974722862244e-02 2.234498597681522369e-02 -3.213873133063316345e-02 1.261870563030242920e-02 6.002117320895195007e-02 1.362601574510335922e-02 -1.648883521556854248e-02 2.609249949455261230e-02 -2.944417297840118408e-02 4.054617136716842651e-02 -5.418685078620910645e-02 -1.888611912727355957e-02 1.373547501862049103e-02 4.237808287143707275e-03 -3.799414634704589844e-02 -5.913534760475158691e-02 -4.094084352254867554e-02 -2.641450054943561554e-02 1.284062396734952927e-02 8.593020960688591003e-03 2.772525511682033539e-02 2.384161762893199921e-02 -8.129519969224929810e-02 -5.949783604592084885e-03 -3.151878342032432556e-02 -1.191554777324199677e-02 1.317865401506423950e-01 2.285807393491268158e-02 5.181312561035156250e-02 -3.666822612285614014e-02 2.671955898404121399e-02 6.499539595097303391e-03 -1.939844898879528046e-02 -6.159360334277153015e-02 2.986758202314376831e-02 2.453564479947090149e-02 -3.554831817746162415e-02 3.244602680206298828e-02 3.181971982121467590e-02 8.957044221460819244e-03 4.510141536593437195e-02 -3.087391331791877747e-02 -1.260297000408172607e-02 -1.894149696454405785e-03 3.978123143315315247e-02 1.122413668781518936e-02 -5.360896885395050049e-02 -8.985069394111633301e-02 -9.477912634611129761e-02 -4.869194701313972473e-03 -3.235160186886787415e-02 5.875563621520996094e-02 3.933617472648620605e-02 -5.982263758778572083e-02 4.177509993314743042e-02 1.102264225482940674e-02 -1.069083157926797867e-02 -1.687632501125335693e-02 -3.525699675083160400e-02 -1.266640052199363708e-02 3.862965479493141174e-02 1.334237307310104370e-02 7.671380788087844849e-02 -6.203928589820861816e-02 -4.364057630300521851e-02 -4.381344467401504517e-02 -1.057259645313024521e-02 -4.777998104691505432e-02 1.004688628017902374e-02 -9.825620800256729126e-02 2.999178320169448853e-02 -5.513062700629234314e-02 4.981357231736183167e-02 1.052003446966409683e-02 -1.195332128554582596e-02 1.179905235767364502e-02 -3.030145727097988129e-02 -2.795345894992351532e-02 1.764051988720893860e-02 -8.140514045953750610e-02 -3.700886294245719910e-02 -2.456163614988327026e-02 9.461139328777790070e-03 -1.024214178323745728e-02 -1.436737086623907089e-02 1.265004929155111313e-02 -7.355424016714096069e-02 3.940975666046142578e-02 -1.754612848162651062e-02 1.250040251761674881e-03 -1.429678872227668762e-02 1.092734187841415405e-02 -5.516644194722175598e-02 2.872362546622753143e-02 3.814426809549331665e-02 1.040103584527969360e-01 -9.697662608232349157e-05 -7.658085087314248085e-04 -6.135672330856323242e-03 -5.403704941272735596e-02 -3.000443987548351288e-02 -2.941956929862499237e-02 -5.326547473669052124e-02 -1.183283864520490170e-03 2.686201035976409912e-02 9.000058285892009735e-03 -1.570614054799079895e-02 -7.644729316234588623e-02 6.048445589840412140e-03 -3.232393786311149597e-02 -4.978385753929615021e-03 2.221219707280397415e-03 -2.236591279506683350e-02 -1.521406695246696472e-03 2.931030839681625366e-02 -1.996413990855216980e-02 -6.112793833017349243e-02 -4.564926400780677795e-02 -2.379366196691989899e-02 1.959596201777458191e-02 -3.718530759215354919e-02 3.692882135510444641e-02 2.232399396598339081e-02 3.858718648552894592e-02 -2.039899863302707672e-02 4.175532236695289612e-02 -7.473069429397583008e-02 2.654388174414634705e-02 3.507595509290695190e-02 5.702292919158935547e-02 -4.491137340664863586e-02 -1.184060201048851013e-01 -4.559025168418884277e-02 2.502968534827232361e-02 -2.187767811119556427e-02 -2.094078250229358673e-02 -8.173095434904098511e-02 1.297087874263525009e-03 -6.871878355741500854e-02 -6.017188727855682373e-02 -5.044957622885704041e-02 5.772411823272705078e-02 6.028528325259685516e-03 -4.185135290026664734e-02 -1.597305200994014740e-02 -1.375524234026670456e-02 -5.247346311807632446e-02 -1.558022666722536087e-02 -2.628922276198863983e-02 5.236375331878662109e-02 -1.675341725349426270e-01 -5.205632746219635010e-02 -8.262059092521667480e-02
-2.647717855870723724e-02 7.193726953119039536e-03 1.306516863405704498e-02 -1.980648748576641083e-02 -1.180049963295459747e-02 -1.085133403539657593e-01 -7.464468479156494141e-02 9.491044096648693085e-03 -3.329554572701454163e-02 -6.190735474228858948e-02 -3.552443534135818481e-02 8.078172057867050171e-02 -1.542921923100948334e-02 -5.529196187853813171e-02 1.522659044712781906e-02 4.625249654054641724e-02 3.865011408925056458e-02 -2.998764067888259888e-02 1.022663526237010956e-02 -4.742136970162391663e-02 9.479288943111896515e-03 -4.532933235168457031e-03 1.125666871666908264e-02 -3.844073414802551270e-02 -2.848145738244056702e-02 4.082452878355979919e-02 -8.952132426202297211e-03 4.336202517151832581e-02 1.592033542692661285e-02 -7.532699499279260635e-03 4.490676894783973694e-02 -2.993720956146717072e-02 -3.381309658288955688e-02 1.103565469384193420e-02 -1.446217764168977737e-03 -6.375598907470703125e-02 1.231784522533416748e-01 -2.583774365484714508e-02 -1.425126288086175919e-02 -1.776441372931003571e-02 9.945933707058429718e-03 -1.126763224601745605e-02 1.111496612429618835e-02 -4.261278733611106873e-02 1.660303957760334015e-02 -1.749761775135993958e-02 -9.643411263823509216e-03 -1.680110394954681396e-02 -3.989629074931144714e-02 -2.416312927380204201e-03 7.284191250801086426e-02 -6.913789547979831696e-03 3.143151849508285522e-02 5.230648443102836609e-02 4.858060926198959351e-02 -4.784835502505302429e-02 1.892582513391971588e-02 5.372313037514686584e-02 -1.930553466081619263e-02 -1.889132149517536163e-02 1.520708017051219940e-02 -1.874904893338680267e-02 -1.477883197367191315e-03 1.361034531146287918e-02 -3.555288165807723999e-02 1.197669804096221924e-01 -6.341298669576644897e-02 -9.853777475655078888e-03 3.717564046382904053e-02 5.402093380689620972e-02 9.145504981279373169e-02 -5.678177252411842346e-02 2.941567264497280121e-02 -7.524430006742477417e-02 5.953202769160270691e-02 -2.792453765869140625e-02 -4.524472355842590332e-02 -7.947809994220733643e-02 1.989666000008583069e-02 9.518706239759922028e-03 2.643530629575252533e-02 2.319341339170932770e-02 1.875757798552513123e-02 -7.644586265087127686e-02 5.171619355678558350e-02 9.159941226243972778e-02 -2.788843214511871338e-02 5.239343643188476562e-02 1.469308789819478989e-02 -1.846720091998577118e-02 1.357553303241729736e-01 -2.309241704642772675e-02 4.019645601511001587e-02 2.069308608770370483e-02 -8.340767817571759224e-04 -3.309991583228111267e-02 -5.500322580337524414e-02 2.793349511921405792e-02 -2.824494004016742110e-06 -5.061990395188331604e-02 4.698175936937332153e-02 3.775597363710403442e-02 -3.577537089586257935e-02 -9.134383872151374817e-03 -3.583518788218498230e-02 -3.651203960180282593e-02 -5.266243964433670044e-02 1.956586912274360657e-02 -4.843788687139749527e-03 1.666509779170155525e-04 1.902723684906959534e-02 -8.001565933227539062e-02 2.146927826106548309e-02 1.529353260993957520e-01 -2.725932002067565918e-02 5.602321773767471313e-02 -2.085756137967109680e-02 7.273524999618530273e-02 2.565975068137049675e-03 5.491095408797264099e-02 -2.510227262973785400e-02 -7.824238389730453491e-03 -4.130187153350561857e-04 4.588029161095619202e-02 3.395531792193651199e-03 1.080436538904905319e-02 -1.752803102135658264e-02 -2.155944705009460449e-02 -2.779704518616199493e-02 -3.823895007371902466e-02 5.814253166317939758e-02 1.212497204542160034e-01 6.141932681202888489e-03 8.343962579965591431e-02 4.893891047686338425e-03 -1.068351883441209793e-02 -4.233263432979583740e-02 4.423434659838676453e-02 -3.452339768409729004e-02 -1.007532700896263123e-02 -9.701854549348354340e-03 -3.106615506112575531e-03 -3.821784257888793945e-02 3.205094113945960999e-02 -3.591841552406549454e-03 -2.164965495467185974e-02 3.526906296610832214e-02 -1.754652149975299835e-02 2.720785886049270630e-02 3.272311016917228699e-02 -3.997473791241645813e-02 7.353051751852035522e-02 -5.531624704599380493e-02 -1.543501485139131546e-02 1.693166419863700867e-02 -2.450270392000675201e-02 -5.704190116375684738e-04 -5.037237890064716339e-03 -4.922105371952056885e-02 2.227523550391197205e-02 -9.728083387017250061e-03 -2.218477055430412292e-02 6.833798438310623169e-02 -5.369427148252725601e-03 -1.243176683783531189e-02 -4.332458227872848511e-02 4.425616934895515442e-02 -5.243673920631408691e-02 1.508419066667556763e-01 -1.101982872933149338e-02 1.885181479156017303e-02 -1.816021464765071869e-02 3.545957803726196289e-02 1.186356991529464722e-01 -2.316062152385711670e-02 -1.225722488015890121e-02 5.821817321702837944e-04 -1.903467625379562378e-02 -1.696024555712938309e-03 -3.924525529146194458e-02 -2.969723939895629883e-02 -9.619431942701339722e-02 2.664178051054477692e-02 6.074479594826698303e-02 8.352607488632202148e-02 2.970962785184383392e-02 -5.257119238376617432e-02 -1.229720655828714371e-02 -3.498474135994911194e-02 3.142857924103736877e-02 -3.599289059638977051e-02 7.529826462268829346e-02 -4.362483322620391846e-02 8.181603997945785522e-02 -6.804697681218385696e-03 2.180368825793266296e-02 -2.159811183810234070e-02 2.468834072351455688e-02 -2.920723147690296173e-02 -7.788775861263275146e-02 6.833855994045734406e-03 1.492975745350122452e-03 -2.863178029656410217e-02 -8.618401479907333851e-04 -8.002429269254207611e-03 3.714728355407714844e-02 -4.620634391903877258e-02 -5.211907252669334412e-02 4.275539889931678772e-02 2.739015407860279083e-02 -3.206018730998039246e-02 -4.826063662767410278e-02 4.614304751157760620e-03 1.885112747550010681e-02 -6.033511459827423096e-02 -3.290598466992378235e-02 -8.032791316509246826e-02 -6.332263350486755371e-02 -1.949490793049335480e-02 -3.565798327326774597e-02 -5.732167139649391174e-02 4.208140075206756592e-02 2.079982869327068329e-02 -1.806425116956233978e-02 3.281547501683235168e-02 -1.887864805757999420e-02 -6.081635132431983948e-02 2.587901987135410309e-02 2.151172794401645660e-02 1.085938215255737305e-01 8.487725257873535156e-02 3.534824401140213013e-02 3.184575960040092468e-02 8.009204268455505371e-02 2.941486891359090805e-03 -3.740672022104263306e-02 -8.573882281780242920e-03 5.429168418049812317e-02 -1.731667295098304749e-02 -5.660071596503257751e-02 1.472650188952684402e-02 -3.302872553467750549e-02 1.012689620256423950e-02 -9.112686850130558014e-03 -1.369913388043642044e-02 -1.711553893983364105e-02 1.991480775177478790e-02 -3.482524305582046509e-02 -3.316128253936767578e-02 -4.558343812823295593e-02 5.313493683934211731e-02 3.301985561847686768e-02 5.678954347968101501e-02 2.748684771358966827e-02 5.221204087138175964e-02 -2.393363974988460541e-02 -1.806659251451492310e-02 2.942143380641937256e-02 3.513468056917190552e-02 1.681449078023433685e-02 -1.113948877900838852e-02 1.254077814519405365e-02 -4.237351194024085999e-02 -2.048629894852638245e-02 2.180063864216208458e-03 -7.379044592380523682e-02 2.424819767475128174e-02 2.139804512262344360e-02 -2.439845353364944458e-02 -5.859557166695594788e-02 6.500626355409622192e-02 6.491653621196746826e-02 8.950495976023375988e-04 -2.147926576435565948e-02 -4.791528917849063873e-03 -2.879824489355087280e-03 -1.900032162666320801e-02 2.387464419007301331e-02 1.031830608844757080e-01 -4.510287567973136902e-02 1.723487116396427155e-02 1.374746765941381454e-02 7.384227123111486435e-03 5.095314979553222656e-02 4.648359492421150208e-02 -1.156379133462905884e-01 -3.858917206525802612e-02 1.349391695111989975e-02 4.661976173520088196e-02 3.937691822648048401e-02 3.340467438101768494e-02 7.192786037921905518e-02 -1.088416501879692078e-01 6.014760956168174744e-02 -6.078587844967842102e-02 1.229081116616725922e-02 -5.959897488355636597e-02 -3.039621282368898392e-03 4.937537759542465210e-02 -9.032500907778739929e-03 -5.314917117357254028e-02 1.069372594356536865e-01 3.007258288562297821e-02 1.568392291665077209e-02 -5.244262516498565674e-03 -9.204877540469169617e-03 -3.940791264176368713e-02 9.964852035045623779e-02 6.054311245679855347e-02 -1.190229505300521851e-02 -4.251036792993545532e-02 3.197591379284858704e-02 1.550047937780618668e-02 2.291941270232200623e-02 -1.085495762526988983e-02 -1.244731992483139038e-01 -1.893694140017032623e-02 1.113916747272014618e-02 -1.964248716831207275e-02 -3.301998600363731384e-02 -7.807587739080190659e-03 -1.336160302162170410e-02 -5.804242566227912903e-03 1.886906661093235016e-02 -1.536646336317062378e-01 2.422777377068996429e-02 7.754165213555097580e-03 -7.689327467232942581e-03 5.635876953601837158e-02 1.039010845124721527e-02 7.114194333553314209e-02 2.857070602476596832e-02 -3.460272029042243958e-02 3.341841325163841248e-02 -6.536636501550674438e-04 5.797931551933288574e-02 -6.914377957582473755e-02 -6.263676285743713379e-02 -2.648650668561458588e-02 9.914993308484554291e-03 -9.786861017346382141e-03 -6.954488158226013184e-02 2.873005578294396400e-03 3.249028814025223255e-04 -1.599323004484176636e-02 5.828483775258064270e-02 -5.304382741451263428e-02 -3.916848823428153992e-02 7.016524672508239746e-02 -1.740531809628009796e-02 -3.312247991561889648e-02 1.022432837635278702e-02 1.594641990959644318e-02 -2.512372098863124847e-02 -4.843574389815330505e-02 -7.778273429721593857e-03 4.668579623103141785e-02 -1.849438250064849854e-02 6.986214965581893921e-02 8.249589800834655762e-02 -4.044598713517189026e-02 -1.297891791909933090e-02 8.783539384603500366e-02 -2.986542508006095886e-02 -3.754927590489387512e-02 1.972324959933757782e-02 -3.167260065674781799e-02 1.204255893826484680e-01 -2.598224394023418427e-02 2.662175334990024567e-02 2.808875590562820435e-02 -3.385413438081741333e-02 4.133921489119529724e-02 -1.063413396477699280e-01 -1.268430147320032120e-02 8.627030998468399048e-03 4.909610748291015625e-02 -7.508747279644012451e-02 3.934573323931545019e-04 3.583962097764015198e-02 1.247557904571294785e-02 -1.390341389924287796e-02 -3.621737658977508545e-02 9.641767293214797974e-02 -2.577129937708377838e-02 -4.073215648531913757e-02 2.230700850486755371e-02 3.176525235176086426e-02 -5.592021346092224121e-02 1.174954418092966080e-02 3.541441634297370911e-02 2.683982998132705688e-02 2.269318141043186188e-02 -1.888525485992431641e-02 -3.941084071993827820e-02 5.155221745371818542e-02 4.177114367485046387e-02 -2.110134996473789215e-02 -2.921053767204284668e-02 -8.511201292276382446e-02 2.169967442750930786e-02 -2.228145301342010498e-02 2.371088042855262756e-02 -1.576675474643707275e-02 -5.614299699664115906e-02 1.043557096272706985e-02 6.411478668451309204e-02 -3.923914046026766300e-04 9.767311066389083862e-02 1.289725899696350098e-01 3.570649772882461548e-02 -2.488989196717739105e-02 -1.684584654867649078e-02 4.655336961150169373e-02 5.459363758563995361e-02 -6.610376387834548950e-02 -8.674337714910507202e-02 -3.619157150387763977e-02 -9.816108271479606628e-03 2.153916284441947937e-02 -2.582122571766376495e-02 -6.291524041444063187e-03 -1.997918449342250824e-02 1.617627963423728943e-02 1.625397242605686188e-02 -2.282675728201866150e-02 -3.607316687703132629e-02 -5.041775852441787720e-02 3.592792199924588203e-03 4.281578585505485535e-02 -6.508113443851470947e-02 1.132367178797721863e-02 -6.328001618385314941e-02 -1.155061740428209305e-02 -4.287709668278694153e-02 -5.260299891233444214e-02 4.080119356513023376e-02 5.646524950861930847e-02 6.688468158245086670e-03 -4.653374478220939636e-02 -4.775136336684226990e-02 4.704814404249191284e-02 2.183527499437332153e-02 -2.589309029281139374e-02 2.056649886071681976e-02 3.107636980712413788e-02 5.791448522359132767e-03 1.036900281906127930e-02 8.045927621424198151e-03 -3.592686727643013000e-02 -2.600261382758617401e-02 8.014941215515136719e-02 -4.673037678003311157e-02 -1.193013507872819901e-02 2.416410669684410095e-02 -7.471019052900373936e-04 -5.088994279503822327e-03 9.243015199899673462e-02 -4.396822303533554077e-02 2.023509144783020020e-02 -2.051079273223876953e-02 1.580246351659297943e-02 -5.053734406828880310e-02 -4.188045114278793335e-02 3.974685445427894592e-03 -1.365988794714212418e-02 2.924570068717002869e-02 5.307918414473533630e-02 2.568796649575233459e-02 -2.799220196902751923e-02 2.660643309354782104e-02 1.404767739586532116e-03 2.940563485026359558e-03 -7.065800577402114868e-02 -4.246907308697700500e-02 1.536846905946731567e-02 7.228191010653972626e-03 2.218213304877281189e-02 -7.261613011360168457e-02 -9.346469305455684662e-03 -9.522032923996448517e-03 -2.814293093979358673e-02 -1.163566019386053085e-02 1.303809229284524918e-02 2.709778398275375366e-02 -1.675964891910552979e-02 -3.324048593640327454e-02 2.715316787362098694e-02 2.558824233710765839e-02 1.300907600671052933e-02 3.568539023399353027e-02 -2.212758362293243408e-02 2.075005695223808289e-02 -4.346324875950813293e-02 -4.769716784358024597e-02 -3.537132591009140015e-02 -1.263580322265625000e-01 9.721646457910537720e-02 -3.160644695162773132e-02 1.807664893567562103e-02 3.260927274823188782e-02 -2.821201644837856293e-02 -5.771629512310028076e-02 2.481314353644847870e-02 -2.745010703802108765e-02 -1.002481728792190552e-01 1.064125671982765198e-01 7.533290237188339233e-02 2.251012809574604034e-02 7.450360804796218872e-02 4.537842422723770142e-02 -1.178348436951637268e-02 1.394068896770477295e-01 6.605854630470275879e-02 -6.250761449337005615e-02 -3.904619067907333374e-02 2.361776493489742279e-02 -1.223418209701776505e-02 -4.984432458877563477e-02 5.520208179950714111e-02 -1.301908027380704880e-02 -2.271967753767967224e-02 2.679742127656936646e-02 4.288591817021369934e-02 -4.652548208832740784e-02 -2.680736593902111053e-02 5.949042737483978271e-02 -1.538075041025876999e-02 2.322937548160552979e-02 -2.436248026788234711e-02 -4.574949666857719421e-02 -3.217424452304840088e-02 -3.373439237475395203e-02 -1.218538638204336166e-02 -1.047877669334411621e-01 -3.956361487507820129e-02 -3.935835883021354675e-02 1.428021490573883057e-02 -2.926940470933914185e-02 -7.356228772550821304e-03 -4.574275389313697815e-02 -2.408507280051708221e-02 1.468848586082458496e-01 -8.307461626827716827e-03 -2.386642247438430786e-02 8.634813874959945679e-02 -2.502760104835033417e-02 6.730708479881286621e-02 -4.174091294407844543e-02 -4.232107847929000854e-02 -2.279057539999485016e-02 4.070211946964263916e-02 -2.861757017672061920e-02 5.378689244389533997e-02 -2.050564624369144440e-02 -7.275145500898361206e-02 3.492857143282890320e-02 -2.591180056333541870e-02 -4.022226482629776001e-02 6.060534715652465820e-02 -1.201448123902082443e-02 5.047627910971641541e-02 -4.194003343582153320e-02 -3.433511778712272644e-02 -4.524896293878555298e-02 -5.645093694329261780e-02 5.333223938941955566e-02 1.035185623914003372e-02 -4.804340004920959473e-02 -1.716145873069763184e-02 9.375327825546264648e-02 9.749583899974822998e-03 4.373648017644882202e-02 6.671011447906494141e-02 -3.918119147419929504e-02 -9.311997331678867340e-03 -3.053182922303676605e-02 5.843866616487503052e-02 -5.114428326487541199e-02 4.991291463375091553e-02 -1.910576969385147095e-02 8.157501369714736938e-02 -6.411779671907424927e-02 1.242306083440780640e-02 1.366463117301464081e-02 -1.043683290481567383e-01 -1.977418735623359680e-02 -2.370082773268222809e-02 5.729670170694589615e-03 7.621106505393981934e-02 -2.571689151227474213e-02 -2.885425649583339691e-02 -1.191937737166881561e-02 -6.063317134976387024e-02 -3.754562884569168091e-02 -5.348508059978485107e-02 4.268878698348999023e-02 2.379703521728515625e-02 -4.134585708379745483e-02 -4.391905292868614197e-02 -2.703458070755004883e-02 -9.990131482481956482e-03 -2.109394595026969910e-02 -1.205544359982013702e-02 -7.625721395015716553e-02 -2.183466963469982147e-02 4.769565910100936890e-02 1.196142099797725677e-02 -4.421127960085868835e-02 1.039742454886436462e-01 2.750145643949508667e-02 -3.673621267080307007e-02 1.756432652473449707e-02 -7.417421787977218628e-02 1.068054139614105225e-02 -2.160968817770481110e-02 4.145820438861846924e-02 4.576035961508750916e-02 -6.404803693294525146e-02 -1.567673310637474060e-02 -9.031929075717926025e-03 3.251226246356964111e-02 -4.378359019756317139e-02 -5.616744607686996460e-02 8.096367120742797852e-02 -5.746459960937500000e-02 -3.596705943346023560e-02 -6.620693486183881760e-03 -7.822858542203903198e-02 -5.906449630856513977e-02 -7.850365340709686279e-02 2.983278594911098480e-03 -6.319106370210647583e-02 -3.730247169733047485e-02 -6.291320919990539551e-02 1.903207413852214813e-02 -5.072414502501487732e-02 -7.841991633176803589e-02 -7.145992666482925415e-02 -4.614484310150146484e-02 3.405355289578437805e-02 3.713940829038619995e-02 -3.730022907257080078e-02 -1.181970443576574326e-02 7.216534763574600220e-02 6.593871861696243286e-02 4.057804495096206665e-02 6.129267811775207520e-02 5.251206085085868835e-02 8.856357634067535400e-02 3.933615982532501221e-02 -7.090862095355987549e-02 2.077106013894081116e-02 -2.647586166858673096e-03 -1.158769056200981140e-02 7.395606487989425659e-02 -4.192321375012397766e-02 -3.521403297781944275e-02 6.134017184376716614e-02 -1.387706957757472992e-02 2.777071483433246613e-02 -7.820077985525131226e-02 3.121865354478359222e-02 -3.849881142377853394e-02 -9.014405310153961182e-02 3.089052997529506683e-02 -3.181969001889228821e-02 -2.407835796475410461e-02 -9.172682650387287140e-03 -5.984119325876235962e-02 -1.409464329481124878e-02 9.591217339038848877e-02 -3.206350654363632202e-02 -4.211782291531562805e-02 -2.493487857282161713e-02 5.489286035299301147e-02 -2.591167949140071869e-02 -1.324587780982255936e-02 1.039026770740747452e-02 -1.050504390150308609e-02 1.619702763855457306e-02 -6.450442969799041748e-02 -4.226375371217727661e-02 3.730215877294540405e-02 2.570936921983957291e-03 -3.803045675158500671e-02 2.674565464258193970e-02 3.773294389247894287e-02 3.814593655988574028e-03 5.478349700570106506e-02 2.594717033207416534e-02 5.227069929242134094e-02 -7.841448299586772919e-03 -5.879184696823358536e-03 -3.775749355554580688e-02 -5.983376130461692810e-02 -1.015651877969503403e-02 1.410183310508728027e-01 -1.336477976292371750e-02 -2.804671227931976318e-02 6.563860923051834106e-03 4.934655874967575073e-02 -9.644128382205963135e-03 -6.473308801651000977e-02 9.753905236721038818e-03 1.884037815034389496e-02 3.974210470914840698e-02 -6.647760421037673950e-02 3.457487747073173523e-02 3.276023641228675842e-02 -6.892345100641250610e-02 -5.696246773004531860e-02 6.389015913009643555e-02 5.592590570449829102e-02 -4.848462343215942383e-02 -3.388953208923339844e-02 -5.718586966395378113e-02 3.850642964243888855e-02 1.577962562441825867e-02 3.349719196557998657e-02 -2.842045202851295471e-02 -6.852843612432479858e-02 3.296730294823646545e-02 1.234398502856492996e-02 5.281715467572212219e-02 2.507591061294078827e-02 -9.935615956783294678e-02 -4.696034267544746399e-02 4.672028869390487671e-02 -4.329215735197067261e-02 -4.116876795887947083e-02 -3.935996070504188538e-02 2.049532951787114143e-03 2.309849113225936890e-02 5.098509415984153748e-02 -1.552247628569602966e-02 -9.802092798054218292e-03 -4.686836153268814087e-03 5.344904214143753052e-02 -1.132081169635057449e-02 -2.478327043354511261e-02 -2.678230032324790955e-02 -1.541157439351081848e-02 2.036165446043014526e-03 -1.696985773742198944e-02 -7.551886606961488724e-03 -5.546919256448745728e-02 3.550707921385765076e-02 -2.384839206933975220e-02 -1.323956996202468872e-02 5.690379068255424500e-02 -3.615424036979675293e-02 -2.753526344895362854e-02 2.553942427039146423e-02 -5.158990249037742615e-02 4.462544620037078857e-02 -2.347895130515098572e-02 -4.687236249446868896e-02 -1.079621538519859314e-02 2.951115742325782776e-02 -1.365142129361629486e-02 -3.501873090863227844e-02 9.026241302490234375e-02 3.123466484248638153e-02 6.736233085393905640e-02 -2.652797289192676544e-02 -4.387731105089187622e-02 7.829139381647109985e-02 7.649550586938858032e-02 -2.016026899218559265e-02 -3.634674847126007080e-02 -6.629765033721923828e-03 5.820680782198905945e-02 -7.600612472742795944e-03 2.772798947989940643e-02 -5.097715184092521667e-02 -7.713505625724792480e-02 -5.015885829925537109e-02 2.795164845883846283e-02 -5.888501554727554321e-02 -1.213068664073944092e-01 -1.181139517575502396e-02 2.623993530869483948e-02 -9.703603386878967285e-02 -8.818943751975893974e-04 1.391689013689756393e-02 4.721223190426826477e-02 -2.299700304865837097e-02 -7.367645204067230225e-02 -7.135825697332620621e-03 -6.722307205200195312e-02 3.422075510025024414e-02 -4.996090009808540344e-02 -2.424866333603858948e-02 -6.240658089518547058e-02 3.334004804491996765e-02 -3.336111456155776978e-02 -3.355308622121810913e-02 -1.900100708007812500e-02 -4.503175243735313416e-02 -3.171171247959136963e-02 1.499648950994014740e-02 -4.080458730459213257e-02 -5.502879153937101364e-03 -6.099971756339073181e-02 1.279229298233985901e-02 1.387805491685867310e-02 -1.019808743149042130e-02 3.590530529618263245e-02 -3.511165454983711243e-02 -2.085965313017368317e-02 4.158976674079895020e-02 6.153398752212524414e-02 -5.056970939040184021e-02 -5.597663298249244690e-02 5.833457037806510925e-02 -8.712422847747802734e-02 5.765493586659431458e-02 6.039253622293472290e-02 2.352648600935935974e-02 -3.942468669265508652e-03 4.545526951551437378e-02 -1.690351590514183044e-02 -6.239531934261322021e-02 -1.578192971646785736e-02 1.937782205641269684e-02 -2.329144813120365143e-02 1.322173606604337692e-02 -1.312328130006790161e-02 -2.327173575758934021e-02 9.609507396817207336e-03 -1.224639937281608582e-01 -4.579452506732195616e-04 1.498021334409713745e-01 -6.229677796363830566e-02 -4.583620757330209017e-04 5.017618183046579361e-03 7.449416071176528931e-02 2.572720311582088470e-02 8.983148634433746338e-02 3.051584959030151367e-02 -1.472738105803728104e-02 -8.292084187269210815e-02 -2.837983891367912292e-02 -2.902345359325408936e-02 1.676567830145359039e-02 3.782897442579269409e-02 1.158938277512788773e-03 -4.259429126977920532e-02 2.189868362620472908e-03 -4.128145426511764526e-02 -5.537287518382072449e-02 -5.939945951104164124e-02 -2.091827988624572754e-02 -8.865629322826862335e-03 -5.988874658942222595e-02 -3.387635573744773865e-02 6.753425300121307373e-02 -2.885972522199153900e-02 6.444985046982765198e-03 1.293498277664184570e-02 3.468868881464004517e-02 -2.432533726096153259e-02 -3.766024601645767689e-04 -5.733092501759529114e-02 -5.468093231320381165e-02 3.560958802700042725e-02 2.423309162259101868e-02 2.520286291837692261e-02 4.004471376538276672e-02 -1.234429422765970230e-02 -1.695823669433593750e-02 -1.541064027696847916e-02 -8.452247828245162964e-02 -2.566727437078952789e-02 6.047266535460948944e-03 -3.439540788531303406e-02 -5.093645304441452026e-02 3.284409642219543457e-02 2.411996386945247650e-02 2.918660826981067657e-02 2.861036360263824463e-02 -2.267286181449890137e-02 -2.608158439397811890e-02 -1.899485848844051361e-02 1.128714904189109802e-02 -2.165369689464569092e-02 2.817976288497447968e-02 -1.089973561465740204e-02 4.114123806357383728e-02 -3.560196980834007263e-02 -1.222066860646009445e-02 1.056301593780517578e-01 5.156025290489196777e-02 -5.871623009443283081e-02 2.955958433449268341e-02 7.701069861650466919e-02 -1.071061380207538605e-02 1.416794024407863617e-02 -2.366460673511028290e-02 -2.446987479925155640e-02 3.656771406531333923e-02 -2.663807198405265808e-02 -1.514817867428064346e-02 -2.954618446528911591e-02 -4.987258929759263992e-03 1.362958457320928574e-03 9.206750243902206421e-02 -1.650196965783834457e-03 8.928667753934860229e-02 -3.429371491074562073e-02 1.192741021513938904e-01 -2.354549430310726166e-02 1.432731468230485916e-02 7.113682478666305542e-02 2.699926309287548065e-02 1.252487674355506897e-02 -2.625052258372306824e-02 -2.356079593300819397e-02 -4.623362794518470764e-02 2.668423019349575043e-02 -4.359610751271247864e-02 2.318749669939279556e-03 -3.382796794176101685e-02 1.171053573489189148e-02 -4.328648000955581665e-02 -2.131845429539680481e-02 -1.179164461791515350e-02 3.882428631186485291e-02 6.047253496944904327e-03 1.399981137365102768e-02 2.825752459466457367e-02 -4.750897362828254700e-02 8.532979409210383892e-04 -5.426974222064018250e-02 5.920714698731899261e-03 -9.365068748593330383e-03 -1.924150623381137848e-02 3.046452999114990234e-03 -7.107844948768615723e-02 4.749209433794021606e-02 -5.863028112798929214e-03 -7.058013230562210083e-02 -5.472445487976074219e-02 -2.039977535605430603e-02 1.967675797641277313e-02 5.095016211271286011e-02 -2.740478329360485077e-02 8.154693990945816040e-03 -5.803044885396957397e-03 1.189958862960338593e-02 2.824694849550724030e-02 6.814485043287277222e-02 -1.010718569159507751e-02 -2.953287027776241302e-02 4.962035641074180603e-02 2.134983427822589874e-03 -4.358017072081565857e-02 4.464521631598472595e-02 7.088170945644378662e-02 1.849364303052425385e-02 8.236448466777801514e-02 -5.751333758234977722e-02 -1.029650028795003891e-02 4.883027449250221252e-02 7.161414623260498047e-02 6.721532344818115234e-02 4.267496243119239807e-02 4.807127639651298523e-02 -3.561665490269660950e-02 -1.688178442418575287e-02 4.313314333558082581e-02 -4.160623252391815186e-02 -1.108467113226652145e-02 1.239998415112495422e-01 3.486157208681106567e-02 -1.749000139534473419e-02 -7.450507581233978271e-02 5.659806728363037109e-02 8.687291294336318970e-03 -1.155636683106422424e-01 4.350799322128295898e-02 -7.659569964744150639e-04 1.346054077148437500e-01 5.026459693908691406e-02 8.959543704986572266e-02 2.904190309345722198e-02 1.210467889904975891e-02 -1.600561477243900299e-02 -7.150420546531677246e-02 4.417591542005538940e-02 -6.917293183505535126e-03 -5.667624995112419128e-02 -1.298164669424295425e-02 2.251386642456054688e-02 2.149752713739871979e-02 -6.846886128187179565e-02 -4.527425765991210938e-02 3.532296791672706604e-02 3.812640532851219177e-02
1.068067643791437149e-02 8.836193941533565521e-03 -5.842293426394462585e-02 -5.203432589769363403e-02 4.515084251761436462e-02 1.171844899654388428e-01 3.654184192419052124e-02 2.179440483450889587e-02 -1.448060665279626846e-02 -3.148008137941360474e-02 2.856120839715003967e-02 -4.933588579297065735e-02 1.684862002730369568e-02 6.093148607760667801e-03 2.504323981702327728e-02 1.792045310139656067e-02 3.514831513166427612e-02 3.716294839978218079e-02 4.134006798267364502e-02 -1.093279104679822922e-02 -2.148052677512168884e-02 4.094620421528816223e-02 4.107946157455444336e-02 2.416574209928512573e-02 7.082400377839803696e-03 -6.426895409822463989e-02 2.009752020239830017e-02 -1.241239905357360840e-02 1.759913749992847443e-02 -1.465355325490236282e-02 -9.210353717207908630e-03 2.371014095842838287e-03 1.341474801301956177e-02 1.199309527873992920e-02 3.895234316587448120e-02 -4.131636582314968109e-03 7.547178119421005249e-02 -8.728550374507904053e-02 3.910028375685214996e-03 3.858057782053947449e-02 -3.962450474500656128e-02 -3.547152504324913025e-02 -3.741856664419174194e-02 -1.892154105007648468e-02 -1.017219200730323792e-01 1.221091207116842270e-02 2.691788971424102783e-02 -4.586814902722835541e-03 -5.080648139119148254e-02 1.438911724835634232e-02 -2.104409784078598022e-02 -3.767552599310874939e-02 4.849002137780189514e-02 3.724509850144386292e-02 -1.010024733841419220e-02 3.013489581644535065e-02 -3.221658617258071899e-02 -1.501837465912103653e-02 4.543779045343399048e-02 -3.841486573219299316e-02 -1.115369517356157303e-02 -1.115198433399200439e-02 4.434060677886009216e-02 1.038687396794557571e-02 4.257592838257551193e-03 -3.862399235367774963e-02 -5.516159161925315857e-02 5.801814608275890350e-03 -3.742376342415809631e-02 -5.253753438591957092e-02 -3.957924619317054749e-02 1.220532134175300598e-02 5.398842692375183105e-02 1.090279314666986465e-02 2.895494550466537476e-02 1.154598500579595566e-02 9.238837286829948425e-03 -1.103861778974533081e-01 4.723618552088737488e-02 -3.734292834997177124e-02 -1.155034154653549194e-01 -3.533787652850151062e-02 -5.181472003459930420e-02 -4.896530881524085999e-02 -7.447923533618450165e-03 -5.743903294205665588e-02 -5.110361054539680481e-02 5.488944426178932190e-02 6.037635263055562973e-03 1.074886997230350971e-03 -6.160416454076766968e-02 -6.590276211500167847e-02 4.903860390186309814e-02 5.001578107476234436e-02 -9.404012933373451233e-03 6.114583835005760193e-02 1.863877661526203156e-02 -3.022970445454120636e-02 2.194022946059703827e-02 -5.540728196501731873e-02 -1.523952092975378036e-02 4.239100590348243713e-02 2.934511005878448486e-02 -1.600221544504165649e-02 -5.841398146003484726e-03 -4.706436768174171448e-02 -5.007968842983245850e-02 -4.085456486791372299e-03 1.406349055469036102e-02 -1.296623796224594116e-02 8.707355707883834839e-02 -2.026753965765237808e-03 2.508118376135826111e-02 -1.584182865917682648e-02 4.037046059966087341e-02 -6.121328100562095642e-02 2.826742455363273621e-02 5.588476359844207764e-02 -2.315221913158893585e-02 1.957078278064727783e-02 -1.157993264496326447e-02 1.912218704819679260e-02 6.550939381122589111e-02 -1.415272708982229233e-02 -2.816739492118358612e-02 1.586970128118991852e-02 -6.669905968010425568e-03 -4.846181254833936691e-03 -7.233222131617367268e-04 4.644355922937393188e-02 3.716242313385009766e-02 7.849334925413131714e-02 -3.239662200212478638e-02 6.947942823171615601e-02 -8.462952449917793274e-03 6.224712729454040527e-02 -5.062860250473022461e-02 2.452609501779079437e-02 -3.192962333559989929e-02 7.702622562646865845e-02 3.028256818652153015e-03 -8.521865122020244598e-03 -5.664254724979400635e-02 5.242964252829551697e-02 -2.831896953284740448e-02 -2.197038382291793823e-02 5.422991141676902771e-02 2.793353796005249023e-02 1.983615756034851074e-02 -1.231691166758537292e-01 -1.424300950020551682e-03 1.313397660851478577e-02 2.841670624911785126e-02 -7.303918246179819107e-03 4.317763447761535645e-02 -1.181035563349723816e-01 2.308558300137519836e-02 3.390633314847946167e-02 -2.081172913312911987e-02 4.083643481135368347e-02 2.099669910967350006e-02 1.417322177439928055e-02 -6.048993766307830811e-02 -5.121995694935321808e-03 -6.544387340545654297e-02 -2.369056642055511475e-02 6.090585887432098389e-02 -1.246478483080863953e-01 -1.109270974993705750e-01 5.197277665138244629e-02 -6.643798667937517166e-03 1.194660738110542297e-01 -2.923307940363883972e-02 -7.953792810440063477e-02 8.483726531267166138e-03 -4.390728846192359924e-02 2.580205164849758148e-02 2.952854149043560028e-02 -3.150727599859237671e-02 1.068136654794216156e-02 3.681476414203643799e-02 3.724757209420204163e-02 -3.638615459203720093e-02 -3.600791469216346741e-02 -8.922379463911056519e-02 2.528758160769939423e-02 -2.400359325110912323e-02 2.558237314224243164e-02 3.299993230029940605e-03 3.550505638122558594e-02 -2.180604264140129089e-02 -3.550340235233306885e-02 -7.964029163122177124e-02 -1.323513220995664597e-02 4.470862820744514465e-02 -1.359956152737140656e-02 -3.609411418437957764e-02 -3.056815080344676971e-02 -4.747117310762405396e-02 -1.171199046075344086e-02 1.433759089559316635e-02 -3.283363208174705505e-02 -8.795282803475856781e-03 2.695366926491260529e-02 -1.033106166869401932e-02 4.702172055840492249e-02 -5.595145921688526869e-05 -2.801915258169174194e-02 -7.751050405204296112e-03 -2.492221444845199585e-02 -5.137010663747787476e-02 6.965095549821853638e-02 -3.741372004151344299e-02 5.513433739542961121e-02 1.767766289412975311e-02 -3.106193989515304565e-02 -1.214018650352954865e-02 2.498235553503036499e-02 1.364132622256875038e-04 6.060518207959830761e-04 3.931147977709770203e-03 -4.740677028894424438e-02 -5.474248528480529785e-02 5.874513182789087296e-03 -3.220419865101575851e-03 -4.700024425983428955e-02 2.979960665106773376e-02 4.793015308678150177e-03 3.251275047659873962e-03 -1.308534592390060425e-01 -1.057800836861133575e-02 -8.973943442106246948e-02 5.944232270121574402e-02 8.129674941301345825e-02 3.421327099204063416e-02 -4.665445536375045776e-02 6.527657061815261841e-02 -3.007506579160690308e-02 4.208866879343986511e-02 2.128062397241592407e-02 -1.654060930013656616e-02 5.708408728241920471e-02 1.200956851243972778e-02 3.235415369272232056e-02 6.663167476654052734e-02 4.863632842898368835e-02 -2.723407559096813202e-02 3.436775505542755127e-02 7.177911698818206787e-02 2.464934810996055603e-02 1.234639808535575867e-02 2.441069483757019043e-02 -4.326729476451873779e-02 -4.382315650582313538e-02 -9.898099116981029510e-03 -1.014485117048025131e-02 -7.577034085988998413e-02 -2.864879556000232697e-03 4.783177282661199570e-03 -2.698641642928123474e-02 5.285901948809623718e-03 -1.442675106227397919e-02 4.577011615037918091e-02 2.471386082470417023e-02 -9.550402313470840454e-02 -7.833524048328399658e-02 -6.138204038143157959e-02 2.217867039144039154e-02 3.054324723780155182e-02 -6.062117218971252441e-02 -5.367359146475791931e-02 -2.063865028321743011e-02 -2.145304344594478607e-02 3.862607479095458984e-02 1.080114766955375671e-02 3.586957603693008423e-02 2.226694300770759583e-02 3.702176036313176155e-03 -2.964351698756217957e-02 -6.952738389372825623e-03 5.765901878476142883e-03 3.975707571953535080e-03 4.126869887113571167e-02 -1.236854400485754013e-02 -4.346898198127746582e-02 -5.463581159710884094e-02 2.134109847247600555e-02 4.152474552392959595e-02 2.065184339880943298e-02 -5.396473780274391174e-02 -3.013425692915916443e-02 -8.160373568534851074e-02 -7.480458822101354599e-03 4.169256985187530518e-02 -5.120407417416572571e-02 2.182086557149887085e-02 -6.073445454239845276e-02 -5.395969375967979431e-02 -3.990391269326210022e-02 -1.816917024552822113e-02 -2.056867233477532864e-04 5.354034528136253357e-02 1.785758510231971741e-02 2.944319881498813629e-02 5.008833855390548706e-02 -1.264912728220224380e-02 -4.017700441181659698e-03 -2.164635341614484787e-03 1.964369043707847595e-02 -1.122541427612304688e-01 2.757398225367069244e-02 2.308786474168300629e-02 4.838776215910911560e-02 -1.817595586180686951e-02 5.271179601550102234e-02 -4.899209737777709961e-02 2.832131087779998779e-02 5.901786684989929199e-02 -1.991546526551246643e-02 -2.183857001364231110e-02 2.738355845212936401e-02 -1.117314398288726807e-02 8.300160989165306091e-03 4.071440547704696655e-02 -1.045538038015365601e-01 3.752388060092926025e-02 -7.340238988399505615e-02 -8.264702744781970978e-03 -5.061507225036621094e-02 7.843622565269470215e-02 1.675958000123500824e-02 3.516127169132232666e-02 2.374118939042091370e-02 -1.096782460808753967e-02 -2.094978839159011841e-02 -5.011203233152627945e-03 -2.855210378766059875e-02 3.300571069121360779e-02 4.284027591347694397e-02 4.630220308899879456e-02 -5.178899038583040237e-03 2.802181616425514221e-02 5.222598090767860413e-02 2.632294036448001862e-02 2.848539501428604126e-02 1.662304811179637909e-02 -4.014897346496582031e-02 -6.679537892341613770e-02 5.361898243427276611e-02 1.184140983968973160e-02 6.973065319471061230e-04 -8.394233137369155884e-02 -8.119180798530578613e-02 9.714434854686260223e-03 5.669859796762466431e-02 -6.665938068181276321e-03 -1.163020636886358261e-02 3.710987791419029236e-02 1.194104552268981934e-02 -2.982833608984947205e-02 2.367659471929073334e-02 -4.042912332806736231e-04 4.827936366200447083e-02 -1.915950886905193329e-02 -1.314492058008909225e-02 -6.381882820278406143e-03 -1.647119969129562378e-02 -9.968578815460205078e-02 -3.819455206394195557e-02 4.720761999487876892e-02 4.882502555847167969e-02 4.087651893496513367e-02 1.223096158355474472e-02 -1.545321103185415268e-02 -1.496613491326570511e-02 -3.328342735767364502e-02 -7.166106253862380981e-02 -7.544333487749099731e-02 9.660592302680015564e-03 3.956906124949455261e-02 -3.460771217942237854e-02 2.129281125962734222e-02 -1.092741079628467560e-02 2.639908157289028168e-02 1.638964749872684479e-02 -1.153748016804456711e-02 1.664168760180473328e-02 3.223171085119247437e-02 -5.342945456504821777e-02 2.396492054685950279e-04 -1.406951807439327240e-02 -2.155265584588050842e-02 6.598156690597534180e-02 -2.581960754469037056e-03 -1.035280060023069382e-02 3.083503060042858124e-02 1.470737904310226440e-02 3.005276620388031006e-02 -4.202664829790592194e-03 5.154691636562347412e-02 -5.636376328766345978e-03 -2.316715195775032043e-02 5.893762782216072083e-02 -3.406832367181777954e-02 -4.537849873304367065e-02 5.136860162019729614e-02 2.307105623185634613e-02 6.061910651624202728e-03 -4.154654219746589661e-02 -3.038463555276393890e-02 4.181221127510070801e-03 8.858807384967803955e-03 1.503182761371135712e-02 3.702440857887268066e-02 3.799067437648773193e-02 -6.622979789972305298e-02 -2.271601743996143341e-02 2.666189335286617279e-02 -5.542875826358795166e-02 -4.533439502120018005e-02 2.572817355394363403e-02 4.439545422792434692e-02 9.739836305379867554e-02 4.889354854822158813e-02 -4.674506187438964844e-02 -6.767883151769638062e-02 -4.537359625101089478e-02 1.737441867589950562e-02 -3.154136613011360168e-02 -1.062339637428522110e-02 1.914839260280132294e-02 -1.519124489277601242e-02 2.098574303090572357e-02 -5.614048615097999573e-02 -6.000869721174240112e-02 -4.237287864089012146e-02 -4.748055711388587952e-03 -7.807054370641708374e-02 8.726497180759906769e-03 -2.914109639823436737e-02 -8.893730491399765015e-02 -3.823145106434822083e-02 -6.050624325871467590e-02 -2.429483830928802490e-02 3.932068869471549988e-02 -1.008799578994512558e-02 -1.132883876562118530e-01 6.322149652987718582e-03 4.282528162002563477e-02 5.521875992417335510e-02 8.029867894947528839e-03 -7.352304458618164062e-02 1.208883337676525116e-02 4.192344099283218384e-02 3.465322777628898621e-02 2.170923352241516113e-02 -1.400456670671701431e-02 1.499478332698345184e-02 4.388469085097312927e-02 1.105424016714096069e-02 9.855782985687255859e-02 -4.603071883320808411e-02 4.014692083001136780e-02 3.561704605817794800e-02 -6.184632889926433563e-03 -1.145823821425437927e-01 -6.352311465889215469e-04 -7.425076514482498169e-02 -2.728445082902908325e-02 5.607663467526435852e-02 -6.466298364102840424e-04 3.360222652554512024e-02 -2.732951194047927856e-03 6.707874126732349396e-03 -8.655508980154991150e-03 1.544761843979358673e-02 -4.937519505620002747e-02 -2.335774945095181465e-03 9.588764607906341553e-02 3.371242433786392212e-02 2.035851776599884033e-02 -3.867885097861289978e-02 2.148315124213695526e-02 -1.331071276217699051e-02 -8.394394069910049438e-02 1.080540707334876060e-03 -2.278774417936801910e-02 1.734335906803607941e-03 -5.159658193588256836e-02 3.619448840618133545e-02 2.754681371152400970e-02 -4.179488122463226318e-02 2.616543695330619812e-02 2.003999985754489899e-02 3.088244982063770294e-02 4.399659577757120132e-03 -3.777793049812316895e-02 -3.679286688566207886e-02 -1.642237231135368347e-02 -8.175121620297431946e-03 1.982772164046764374e-02 1.474518887698650360e-02 -1.585942506790161133e-02 -1.821849867701530457e-02 -1.091046333312988281e-01 -8.893868327140808105e-02 -6.540013104677200317e-02 2.161941118538379669e-02 -1.843456365168094635e-02 -4.455490410327911377e-02 7.087978068739175797e-03 -5.105151608586311340e-02 2.179781440645456314e-03 5.018615350127220154e-02 5.477534234523773193e-02 2.041143365204334259e-03 2.228843979537487030e-02 -4.586904495954513550e-02 -5.736509338021278381e-02 3.643697872757911682e-02 2.909234026446938515e-03 -3.427593410015106201e-02 -8.612782694399356842e-03 -8.475918322801589966e-02 3.052424825727939606e-02 -2.044528350234031677e-02 5.470460280776023865e-02 -9.838262945413589478e-02 -8.193036541342735291e-03 -3.532352671027183533e-02 1.569608412683010101e-02 6.640977226197719574e-03 -7.278115954250097275e-04 -1.397919282317161560e-02 -1.677321270108222961e-02 4.284456372261047363e-02 -7.996576279401779175e-02 4.244387615472078323e-03 -1.189820701256394386e-03 8.369038812816143036e-03 5.361771583557128906e-02 2.389054931700229645e-02 3.117231093347072601e-02 2.592090517282485962e-02 3.439019992947578430e-02 3.073218464851379395e-02 1.067550503648817539e-03 -6.768228113651275635e-02 -7.234499603509902954e-02 -3.733093664050102234e-02 7.650697231292724609e-02 4.417487233877182007e-02 5.440418794751167297e-02 -1.384086441248655319e-02 -4.701278731226921082e-02 -2.247652597725391388e-02 3.655919060111045837e-02 -1.602519187144935131e-03 -2.505597658455371857e-02 3.094069659709930420e-02 3.040860220789909363e-02 -5.673477426171302795e-02 9.538907557725906372e-03 1.218441780656576157e-02 -2.523595653474330902e-02 -3.967417031526565552e-02 2.723032236099243164e-02 -7.338142022490501404e-03 -2.763360366225242615e-02 5.054326727986335754e-02 -1.109886616468429565e-01 4.978640936315059662e-03 -8.805729448795318604e-03 9.051551111042499542e-03 -4.442793130874633789e-02 1.151216495782136917e-02 -3.316576033830642700e-02 4.372100159525871277e-02 4.139839205890893936e-03 -5.036580190062522888e-02 -3.807893767952919006e-02 6.608377397060394287e-02 8.799424767494201660e-02 6.794841587543487549e-02 -2.423583529889583588e-02 2.032390423119068146e-02 4.198497161269187927e-02 -5.877227336168289185e-02 4.911101609468460083e-02 -4.415597394108772278e-02 3.749001026153564453e-02 1.422730088233947754e-02 -3.799139335751533508e-02 6.399351172149181366e-03 -2.305401302874088287e-02 -1.907796226441860199e-02 -1.238384395837783813e-01 -5.944005679339170456e-03 -4.072907939553260803e-02 -1.652345526963472366e-03 -3.591103851795196533e-02 -4.113011807203292847e-02 -3.673063963651657104e-02 -5.832977592945098877e-03 -1.816376112401485443e-02 -5.972484126687049866e-02 -1.000291407108306885e-01 5.050696060061454773e-02 -3.527923254296183586e-03 -2.083775028586387634e-02 2.836570702493190765e-02 6.029350310564041138e-02 -3.786551952362060547e-02 -1.130222901701927185e-01 -8.656863123178482056e-02 -8.948642015457153320e-02 5.733189731836318970e-02 -3.593588247895240784e-02 -7.084755599498748779e-02 -4.344417899847030640e-02 -8.407095074653625488e-02 -2.138662850484251976e-03 -5.393445119261741638e-02 -3.492275252938270569e-02 1.381694339215755463e-02 -1.701854914426803589e-02 -2.877376787364482880e-02 -2.441061660647392273e-02 -9.767795354127883911e-02 5.907493177801370621e-03 3.738764440640807152e-03 1.905419491231441498e-02 -7.056111097335815430e-02 1.209855079650878906e-02 -2.458887919783592224e-02 -4.509140923619270325e-02 -3.225345909595489502e-02 5.306678265333175659e-02 -6.590650975704193115e-02 2.474804967641830444e-02 3.163883462548255920e-02 -3.515838831663131714e-02 2.740404754877090454e-02 3.574940562248229980e-02 -5.089734494686126709e-02 -5.334717780351638794e-02 3.655428811907768250e-02 3.416108712553977966e-02 7.602880150079727173e-02 -7.305339723825454712e-02 -8.019438944756984711e-03 8.718737214803695679e-02 3.544844686985015869e-02 -3.580281883478164673e-02 -3.854349255561828613e-02 2.037988416850566864e-02 -4.737034812569618225e-02 8.221051655709743500e-03 -1.357962097972631454e-02 8.272679522633552551e-03 2.296960540115833282e-02 -5.886127799749374390e-02 -2.619818225502967834e-02 2.119915932416915894e-02 -3.213744238018989563e-02 4.077956825494766235e-02 -5.438043177127838135e-02 -1.530437171459197998e-02 1.000845152884721756e-02 -3.086628764867782593e-02 -2.822233363986015320e-02 -4.929902404546737671e-02 -8.998025208711624146e-02 4.142700880765914917e-02 2.840863727033138275e-02 8.102118037641048431e-03 1.591274514794349670e-02 -3.925540484488010406e-03 2.425601705908775330e-02 -3.715780004858970642e-02 -8.874491602182388306e-02 -8.294454775750637054e-03 1.992619410157203674e-02 2.929335646331310272e-02 1.443937886506319046e-02 2.859106287360191345e-02 -6.698858737945556641e-02 3.976276516914367676e-02 -7.544205058366060257e-03 -9.826902300119400024e-02 3.380195423960685730e-02 -5.707571282982826233e-03 -2.626532223075628281e-03 5.036736838519573212e-03 7.559787482023239136e-03 -5.732055008411407471e-02 4.530221968889236450e-02 -7.962527684867382050e-03 1.155973412096500397e-03 4.240931198000907898e-02 6.319254636764526367e-02 -1.460982114076614380e-01 -2.827122062444686890e-02 -3.818431869149208069e-02 -3.233095631003379822e-02 7.859632372856140137e-02 5.148718133568763733e-02 -3.108773753046989441e-02 -7.968788594007492065e-02 -1.337066292762756348e-02 3.550485521554946899e-02 -4.283460974693298340e-02 1.684508472681045532e-02 4.509361833333969116e-02 -5.111709237098693848e-02 -7.017934229224920273e-03 1.577065442688763142e-03 5.023359507322311401e-02 -1.000534370541572571e-02 1.570410467684268951e-02 1.588630862534046173e-02 3.376687318086624146e-02 3.763139992952346802e-02 -7.749228179454803467e-02 -6.435678806155920029e-03 -7.259244471788406372e-02 -7.565357536077499390e-02 -2.792436443269252777e-02 -3.547580167651176453e-02 2.889596484601497650e-02 6.445162743330001831e-02 1.704287342727184296e-02 -1.185753755271434784e-02 -3.649717196822166443e-02 -8.170938491821289062e-02 -2.210045931860804558e-03 1.536408253014087677e-02 1.519900048151612282e-03 4.646242782473564148e-02 4.594992101192474365e-02 -5.924651026725769043e-02 -4.587935283780097961e-02 -1.144156884402036667e-02 6.576301157474517822e-02 -2.756158821284770966e-02 1.828221604228019714e-02 -2.347038872539997101e-02 -3.436753293499350548e-03 9.038437902927398682e-02 1.338931918144226074e-02 -4.736164957284927368e-02 -1.550527568906545639e-02 -2.178762294352054596e-02 2.111357077956199646e-02 2.259767614305019379e-02 -3.996831551194190979e-02 -3.926115855574607849e-02 -3.672914579510688782e-03 -5.732416361570358276e-02 9.015932679176330566e-02 4.763508588075637817e-02 -1.296554058790206909e-01 1.014275755733251572e-02 3.188769891858100891e-02 1.703506521880626678e-02 -2.171894721686840057e-02 -1.007531955838203430e-02 -7.959473878145217896e-02 7.847512513399124146e-02 -4.691020026803016663e-02 -1.593616791069507599e-02 -2.720066532492637634e-02 -2.377991750836372375e-02 -1.415688991546630859e-01 3.377113118767738342e-02 -8.122608996927738190e-03 1.949417928699404001e-04 6.553155928850173950e-02 2.687671780586242676e-02 -9.075311571359634399e-02 -1.558487564325332642e-01 -5.168619751930236816e-02 -1.918512955307960510e-02 -5.510410293936729431e-02 4.969286173582077026e-02 2.456539869308471680e-02 2.910438552498817444e-02 4.394460842013359070e-02 -6.938884407281875610e-02 3.963475301861763000e-02 1.154207587242126465e-01 4.335416480898857117e-02 -6.559424102306365967e-02 -1.395684760063886642e-02 2.800773270428180695e-02 -3.581023961305618286e-02 4.254473745822906494e-02 2.531198598444461823e-02 2.375753410160541534e-02 4.585661366581916809e-02 3.290387615561485291e-02 9.727706201374530792e-03 -1.268152147531509399e-02 -6.173582002520561218e-02 5.054107308387756348e-02 -8.621333166956901550e-03 -3.000268153846263885e-02 4.815938300453126431e-04 3.885097056627273560e-02 4.129145294427871704e-02 -7.002547383308410645e-02 -9.539363905787467957e-03 -4.993139579892158508e-02 -3.678589686751365662e-02 6.177475443109869957e-04 8.803515881299972534e-02 3.686620853841304779e-03 -5.768379196524620056e-02 -7.123952358961105347e-02 -1.405262295156717300e-02 1.592491008341312408e-02 1.075779553502798080e-02 1.586343534290790558e-02 -7.355401664972305298e-02 -8.582355827093124390e-02 -6.720826495438814163e-03 -7.368697226047515869e-02 5.527856200933456421e-02 -3.618335351347923279e-02 2.950202673673629761e-02 2.175506949424743652e-02 -4.429407790303230286e-02 3.088762983679771423e-02 -1.901760697364807129e-01 5.329154431819915771e-02 -1.406028419733047485e-01 -2.740165218710899353e-02 -5.642272531986236572e-03 8.146531134843826294e-02 4.048764333128929138e-02 4.788371920585632324e-02 2.082037925720214844e-02 -5.203555524349212646e-02 3.388003259897232056e-02 4.505473002791404724e-02 4.684039577841758728e-02 -3.844160214066505432e-02 -2.316442690789699554e-02 9.872066788375377655e-03 1.674967445433139801e-02 -8.130878210067749023e-03 2.994262799620628357e-02 -5.152297019958496094e-02 -6.011379510164260864e-02 3.324707970023155212e-02 4.077631607651710510e-02 4.712218418717384338e-02 -3.148342669010162354e-02 1.173976226709783077e-03 1.764865592122077942e-02 5.493676662445068359e-02 3.454852104187011719e-02 -7.374124228954315186e-02 2.690868265926837921e-02 1.573326764628291130e-03 1.263811886310577393e-01 4.990899562835693359e-02 -3.691273182630538940e-02 4.771038889884948730e-02 1.234848052263259888e-02 -7.092635333538055420e-02 -5.149986967444419861e-02 1.056244969367980957e-02 -1.641480252146720886e-02 3.911417734343558550e-04 5.912487953901290894e-02 5.902731046080589294e-02 -2.306969650089740753e-02 -9.752144105732440948e-03 -4.576393216848373413e-02 4.028773307800292969e-02 -3.789650648832321167e-02 2.315432205796241760e-02 6.976390630006790161e-02 5.015223473310470581e-02 -3.492160141468048096e-02 -2.817742154002189636e-02 5.718563497066497803e-02 1.059542037546634674e-02 -2.216935902833938599e-02 -3.400828689336776733e-02 4.599926527589559555e-03 3.747240081429481506e-02 4.585512727499008179e-02 -9.156494587659835815e-02 6.907875835895538330e-02 -3.708213940262794495e-02 -5.390841886401176453e-02 -1.122221164405345917e-02 2.586151473224163055e-02 -2.736872993409633636e-02 2.133307047188282013e-02 -1.345511805266141891e-02 -4.263945668935775757e-02 2.746343240141868591e-02 -2.585409209132194519e-03 -5.773619189858436584e-02 -2.034346573054790497e-02 -1.373173762112855911e-02 1.344679445028305054e-01 -1.797637902200222015e-02 -6.904873996973037720e-02 -2.465502172708511353e-02 3.837291523814201355e-02 3.148166835308074951e-02 -2.018549852073192596e-02 8.997868001461029053e-02 -5.515447352081537247e-03 -2.572909463196992874e-03 3.971517458558082581e-02 5.235549807548522949e-02 8.099128305912017822e-02 -2.384545747190713882e-03 8.884944953024387360e-03 3.308523911982774734e-03 -3.144030272960662842e-02 -1.220270767807960510e-01 -8.685335516929626465e-02 6.988164968788623810e-03 -5.781711265444755554e-02 -7.185497879981994629e-02 5.928410589694976807e-02 -4.300921037793159485e-02 -1.370138376951217651e-01 9.537987411022186279e-03 3.547190874814987183e-02 1.223401166498661041e-02 -3.541267663240432739e-02 -9.395802626386284828e-04 7.606536149978637695e-02 3.028988093137741089e-02 1.778269559144973755e-02 6.968626379966735840e-02 3.454542532563209534e-02 5.978179350495338440e-02 -1.335117220878601074e-01 -1.400195341557264328e-02 4.597612097859382629e-02 -1.916544511914253235e-02 1.304570585489273071e-02 3.456834703683853149e-02 3.449765592813491821e-02 -1.070031747221946716e-01 -1.309842336922883987e-02 1.296045724302530289e-02 2.306592836976051331e-02 6.545665115118026733e-02 1.079377066344022751e-02 -7.535441964864730835e-02 2.378968894481658936e-02 -4.961217939853668213e-02 -1.513183023780584335e-02 -1.060481742024421692e-02 3.680386394262313843e-02 5.160489305853843689e-02 -9.693294763565063477e-02 -8.098303526639938354e-02 3.328376263380050659e-02 1.636747270822525024e-02 -3.173656994476914406e-03 -2.163660153746604919e-02 5.351034179329872131e-02 -9.935417771339416504e-02 -1.052847015671432018e-03 -2.160229720175266266e-02 4.537478461861610413e-02 -6.192169710993766785e-02 5.285872891545295715e-02 8.229594677686691284e-03 -1.638955064117908478e-02 1.101440191268920898e-02 4.241879284381866455e-02 -4.045092966407537460e-03 9.626065194606781006e-02 -6.241416186094284058e-02 3.808303968980908394e-03 9.621405042707920074e-03 1.454383600503206253e-02 8.573875529691576958e-04 -1.132893487811088562e-01 -3.081762604415416718e-02 2.205351367592811584e-02 -1.266237795352935791e-01 -4.778916388750076294e-02 3.934131190180778503e-02 -2.891759201884269714e-02 -6.525468081235885620e-02 -6.857293099164962769e-02 5.465031601488590240e-03 7.041288912296295166e-02
2.799193374812602997e-02 1.536111906170845032e-02 -1.621596142649650574e-02 4.391652997583150864e-03 -9.591577574610710144e-03 -3.378210961818695068e-02 -3.104548528790473938e-02 -7.710143923759460449e-03 1.291473861783742905e-02 -1.767507381737232208e-02 -5.692838691174983978e-03 9.217946231365203857e-02 -3.731339797377586365e-02 1.124087534844875336e-02 -4.176737740635871887e-02 -3.218284808099269867e-03 -7.351556792855262756e-03 -1.514050364494323730e-02 -4.640905931591987610e-02 -4.034921526908874512e-02 2.164860488846898079e-04 1.444333931431174278e-03 6.857728958129882812e-02 2.556117996573448181e-02 -1.181670837104320526e-02 -9.744508564472198486e-02 1.455144677311182022e-02 -1.074110344052314758e-01 -1.404414139688014984e-02 4.441030323505401611e-02 -8.095333725214004517e-02 3.637996315956115723e-02 -3.171546012163162231e-02 8.464611321687698364e-02 -3.971884492784738541e-03 -5.337493494153022766e-03 -3.586731106042861938e-02 4.960556328296661377e-02 -2.716927230358123779e-02 5.717393755912780762e-02 -7.737133651971817017e-02 -1.495609711855649948e-02 -6.028483435511589050e-02 1.259489916265010834e-02 5.658142268657684326e-02 -1.176267303526401520e-02 -4.687982425093650818e-02 5.142517760396003723e-02 -5.354371666908264160e-02 3.807199001312255859e-02 -1.295819645747542381e-03 -3.546474874019622803e-02 -2.231352031230926514e-02 4.158686473965644836e-02 -3.241422027349472046e-02 -9.112399071455001831e-03 -2.479869686067104340e-02 5.508078262209892273e-03 -1.925534917972981930e-03 1.129110896727070212e-04 5.566898360848426819e-02 -1.083055045455694199e-02 1.294024987146258354e-03 -1.340350322425365448e-02 7.140627596527338028e-03 3.745453897863626480e-03 1.024025492370128632e-02 -3.659661486744880676e-02 5.439902655780315399e-03 -3.698730096220970154e-02 -8.041080832481384277e-02 -2.046537585556507111e-02 4.834274761378765106e-03 -6.593656539916992188e-02 -1.547299511730670929e-02 -1.816627942025661469e-02 -1.064983429387211800e-03 2.724478766322135925e-02 -4.479587823152542114e-02 6.341422349214553833e-02 7.881192117929458618e-02 1.394528243690729141e-02 -2.284819819033145905e-02 8.177544176578521729e-02 2.649489976465702057e-02 3.677879273891448975e-02 -7.531044073402881622e-03 -6.047380343079566956e-02 -3.748172894120216370e-02 8.495804853737354279e-03 -1.176369264721870422e-01 -5.816963966935873032e-03 -2.598111890256404877e-02 -3.425507247447967529e-02 -5.544677376747131348e-02 5.520173534750938416e-02 8.398511447012424469e-03 -9.126388281583786011e-02 1.465308573096990585e-02 3.935094177722930908e-02 2.974391542375087738e-02 -4.171309620141983032e-02 2.248305827379226685e-02 7.167842239141464233e-03 4.806659743189811707e-02 -1.157286227680742741e-03 -2.255519106984138489e-02 -6.669987738132476807e-02 2.248510718345642090e-03 -2.068298682570457458e-02 -4.915812611579895020e-02 5.964860692620277405e-02 -1.916623301804065704e-02 -2.660880982875823975e-02 -7.575076539069414139e-03 2.478691190481185913e-02 -3.936901316046714783e-02 3.239855170249938965e-03 4.837260022759437561e-02 -5.703127011656761169e-02 -3.593870997428894043e-02 -2.140790922567248344e-03 7.927936501801013947e-03 -9.777952730655670166e-02 -5.571377277374267578e-02 -2.692363690584897995e-03 -2.809466794133186340e-02 3.890640661120414734e-02 -3.387865424156188965e-02 -4.590356349945068359e-02 2.324176393449306488e-02 -1.414325088262557983e-01 1.193924900144338608e-02 -1.762179099023342133e-02 2.666866965591907501e-02 -3.098302334547042847e-02 1.944216340780258179e-02 1.654938980937004089e-02 -2.772806584835052490e-02 -1.644716248847544193e-03 -2.191513217985630035e-02 2.664690464735031128e-02 -2.593176439404487610e-02 1.982584223151206970e-02 -5.262557533569633961e-04 -4.336626827716827393e-02 1.199925038963556290e-02 -5.270217079669237137e-03 -3.209818527102470398e-02 -3.605678677558898926e-02 1.307333260774612427e-02 -9.775999002158641815e-03 -8.107502013444900513e-03 4.940592125058174133e-02 -1.258963439613580704e-02 -5.852383002638816833e-02 -2.896975539624691010e-02 -2.997316233813762665e-02 -3.818833827972412109e-02 -4.008103907108306885e-02 4.637842252850532532e-02 -4.894223529845476151e-04 -5.810225382447242737e-02 -5.278083961457014084e-03 -2.693115547299385071e-02 -4.824161063879728317e-03 -4.068680480122566223e-02 -9.112695604562759399e-02 -1.716447770595550537e-01 3.247457370162010193e-02 -3.812294080853462219e-02 1.146974042057991028e-01 -9.684255346655845642e-03 -1.635221391916275024e-02 3.493420779705047607e-02 1.437812298536300659e-02 -3.080431604757905006e-03 -2.399422414600849152e-02 1.287677884101867676e-02 -2.582381479442119598e-02 -4.345382563769817352e-03 7.113315910100936890e-02 -1.827311515808105469e-02 2.822079136967658997e-02 -3.409043326973915100e-02 1.217956002801656723e-02 7.820508629083633423e-02 4.846840724349021912e-02 4.110395535826683044e-02 -5.160263553261756897e-02 3.838109597563743591e-02 -1.080983430147171021e-01 6.942450255155563354e-02 -8.074473589658737183e-02 2.787009626626968384e-02 -9.476399980485439301e-03 1.862066984176635742e-02 3.982207179069519043e-02 3.990489244461059570e-02 -2.501566335558891296e-02 1.159404125064611435e-02 -9.261273778975009918e-03 -3.245063126087188721e-02 -4.918745532631874084e-02 -5.477624014019966125e-03 9.169873781502246857e-03 -2.796191023662686348e-03 -1.726636663079261780e-02 -2.303191088140010834e-02 2.424535527825355530e-02 -3.496517986059188843e-02 -5.425272881984710693e-02 2.881123311817646027e-02 -2.054698206484317780e-02 -1.638833247125148773e-02 -5.090634152293205261e-02 3.680886328220367432e-02 -4.340093955397605896e-02 -3.588222339749336243e-02 2.507265657186508179e-02 -1.641023717820644379e-02 1.488344743847846985e-02 -8.576381206512451172e-02 -7.571325171738862991e-03 -9.044875949621200562e-02 2.625808306038379669e-02 1.152033451944589615e-02 -3.939772769808769226e-02 1.472820434719324112e-02 -6.031555682420730591e-02 6.988338381052017212e-02 -3.411075472831726074e-02 -1.495034527033567429e-02 -5.997635796666145325e-02 3.726450726389884949e-02 -6.659732200205326080e-03 -3.294170647859573364e-02 6.724216043949127197e-02 -2.487856522202491760e-02 3.153119981288909912e-02 -3.186895698308944702e-02 -4.838985623791813850e-04 -5.059251189231872559e-02 1.952201128005981445e-02 4.241900518536567688e-02 -1.149588823318481445e-02 -7.597060408443212509e-03 -3.391627222299575806e-02 8.366226404905319214e-02 7.510875165462493896e-02 1.872400194406509399e-02 -3.053098730742931366e-02 -3.119938634335994720e-02 4.933471232652664185e-02 3.774850070476531982e-02 -2.115680277347564697e-02 -1.000911369919776917e-02 -6.221478688530623913e-04 2.098543569445610046e-02 1.025968324393033981e-02 3.992165625095367432e-02 -1.925758831202983856e-02 -4.582661017775535583e-02 -1.500794943422079086e-02 5.187992006540298462e-02 -1.964745856821537018e-02 -3.883019462227821350e-02 -1.429423037916421890e-02 -1.797848567366600037e-02 -5.117843672633171082e-02 5.340300127863883972e-02 -3.424705937504768372e-02 4.078342765569686890e-02 -2.818451635539531708e-02 -5.538584664463996887e-03 1.919293403625488281e-02 5.195257440209388733e-02 -1.137096807360649109e-02 -5.009957402944564819e-02 4.734014347195625305e-02 -5.737323686480522156e-02 4.032342135906219482e-02 -6.328438408672809601e-03 2.394312061369419098e-02 -1.510836090892553329e-02 -9.543786197900772095e-02 -2.437143027782440186e-02 4.837071150541305542e-02 1.272010523825883865e-02 -7.016079127788543701e-02 6.599028408527374268e-02 -2.779922820627689362e-02 3.945127502083778381e-02 -1.007227925583720207e-03 1.649378240108489990e-02 -4.096835479140281677e-02 2.779043279588222504e-03 5.247528105974197388e-02 2.183005027472972870e-02 -5.826356261968612671e-02 1.813598535954952240e-02 -6.778496503829956055e-02 -2.844377793371677399e-02 -2.906947955489158630e-02 1.615897566080093384e-02 2.324081398546695709e-02 -4.804915189743041992e-02 -4.061258211731910706e-02 -6.030264124274253845e-02 7.534705102443695068e-03 -9.891266375780105591e-02 7.147531490772962570e-03 -7.722398731857538223e-03 3.083981387317180634e-02 2.226674742996692657e-02 7.436276972293853760e-02 -3.690632432699203491e-02 -5.508625879883766174e-02 4.576446115970611572e-02 -4.565748386085033417e-03 4.211337119340896606e-02 -4.365095868706703186e-02 -1.836940273642539978e-02 5.040265154093503952e-03 -6.719421595335006714e-02 3.084796108305454254e-02 4.586340859532356262e-02 2.421244420111179352e-02 -7.731194794178009033e-02 5.932848155498504639e-02 -4.321451857686042786e-02 -1.077631209045648575e-02 3.661933168768882751e-02 -1.821776479482650757e-02 -2.955191396176815033e-02 -7.647011429071426392e-02 3.018345311284065247e-02 5.313511937856674194e-02 -3.400459140539169312e-02 -4.835580475628376007e-03 -5.801555141806602478e-02 -4.058390483260154724e-02 3.144567087292671204e-02 1.387903373688459396e-02 4.097693786025047302e-02 -8.129358291625976562e-03 7.182306796312332153e-02 -1.193315349519252777e-02 -1.135703455656766891e-02 2.998308651149272919e-02 -2.635503001511096954e-02 -2.905930578708648682e-02 2.302876487374305725e-02 -6.727652158588171005e-03 -1.073458604514598846e-02 4.351782053709030151e-02 -5.898458417505025864e-03 -2.681164443492889404e-02 4.315712954849004745e-03 -8.267861604690551758e-02 1.082027051597833633e-02 1.661690138280391693e-02 -5.085335671901702881e-02 7.221758831292390823e-03 4.644196014851331711e-03 -6.513004750013351440e-02 3.140911832451820374e-02 -6.957546574994921684e-04 -1.424366142600774765e-02 3.933927416801452637e-02 -3.897023561876267195e-04 -9.651083499193191528e-03 2.605768665671348572e-02 5.054304376244544983e-02 -1.198545098304748535e-02 3.255029767751693726e-02 -4.615955404005944729e-04 7.232790812849998474e-03 -1.785727031528949738e-02 2.334610186517238617e-02 3.073617815971374512e-02 -2.878779545426368713e-02 -3.007571445778012276e-03 1.678929477930068970e-02 -3.046719357371330261e-02 1.382459700107574463e-02 -3.276114165782928467e-02 -3.023246244993060827e-04 -4.169255495071411133e-02 -2.399935200810432434e-02 -1.124634221196174622e-02 6.911583989858627319e-02 1.825526915490627289e-02 -1.209631562232971191e-03 2.131597511470317841e-02 -9.325673803687095642e-03 -1.929498650133609772e-02 4.279198497533798218e-02 -3.359762951731681824e-02 -3.964897245168685913e-02 2.354410011321306229e-03 1.328968163579702377e-02 4.342450201511383057e-02 2.761711552739143372e-02 -4.472397267818450928e-02 1.925638318061828613e-02 2.192618511617183685e-02 4.731872584670782089e-03 3.225863724946975708e-02 -5.418846011161804199e-02 2.839524485170841217e-02 -1.318088918924331665e-02 -6.157911568880081177e-02 3.511450439691543579e-02 -4.019042477011680603e-02 1.156410481780767441e-02 1.060484256595373154e-02 -4.620657861232757568e-02 3.985543176531791687e-02 5.697947368025779724e-02 -8.968335576355457306e-03 -3.770679607987403870e-02 -1.564145274460315704e-02 -5.322580225765705109e-03 -1.107741892337799072e-02 4.625156894326210022e-02 5.086270719766616821e-02 -3.911888226866722107e-02 4.827961325645446777e-02 -4.007329046726226807e-02 2.681145258247852325e-02 6.964801996946334839e-02 -2.187892328947782516e-03 -4.891720786690711975e-02 -5.309696868062019348e-02 -2.795848064124584198e-02 -2.945109270513057709e-02 6.518492102622985840e-02 3.438472049310803413e-03 -2.598235756158828735e-02 -8.982873708009719849e-02 5.024779960513114929e-02 -2.519043721258640289e-02 -4.798936715815216303e-04 -2.256500162184238434e-02 4.583308473229408264e-02 -2.346854889765381813e-03 -7.076159119606018066e-02 3.634307906031608582e-02 1.333666220307350159e-02 3.574162721633911133e-02 -5.347264930605888367e-02 3.248980268836021423e-02 -5.150422826409339905e-02 3.023693524301052094e-02 3.046975657343864441e-02 4.930341988801956177e-02 -7.648551464080810547e-02 -8.910454809665679932e-02 -4.537276178598403931e-02 9.826304391026496887e-03 3.191049396991729736e-02 2.498414367437362671e-02 1.093794219195842743e-02 -4.592489078640937805e-02 -6.822654604911804199e-02 -2.700666896998882294e-02 -4.715092480182647705e-02 1.891703344881534576e-02 -2.411497756838798523e-02 -1.686551608145236969e-02 -4.224009066820144653e-02 2.737961767707020044e-04 1.089763548225164413e-02 1.734223030507564545e-02 -4.714532289654016495e-03 2.679542638361454010e-02 -6.048731505870819092e-03 2.400872111320495605e-02 2.381297945976257324e-02 -8.792369626462459564e-03 1.393802743405103683e-02 3.582743182778358459e-02 -4.519392177462577820e-02 1.581839658319950104e-02 -7.343981415033340454e-03 4.440356418490409851e-02 -6.875758524984121323e-03 4.215122200548648834e-03 -3.808472305536270142e-02 -1.901882886886596680e-02 -5.435621365904808044e-02 3.818817064166069031e-02 -6.425202637910842896e-02 -2.978795580565929413e-02 3.980119526386260986e-02 5.891469493508338928e-02 3.805076470598578453e-03 -2.794147469103336334e-02 2.924476377665996552e-02 2.736190892755985260e-02 -3.218418359756469727e-02 -9.885752946138381958e-02 1.679409644566476345e-03 -3.347615152597427368e-02 4.627197235822677612e-02 -2.336954325437545776e-02 -5.877606943249702454e-02 3.287524729967117310e-02 4.781780764460563660e-02 3.905296325683593750e-02 -9.641116484999656677e-03 -1.041574329137802124e-01 -5.613365024328231812e-02 1.098480913788080215e-02 -1.171875745058059692e-02 -3.345484286546707153e-02 4.979301616549491882e-02 4.208854958415031433e-02 -2.913796110078692436e-03 -2.549489401280879974e-02 2.355687133967876434e-02 1.330702658742666245e-02 -9.694899618625640869e-02 2.247006632387638092e-02 3.038257360458374023e-02 -2.110299840569496155e-02 6.393562257289886475e-02 -4.776097089052200317e-02 -3.317071497440338135e-02 4.209419712424278259e-02 1.573117077350616455e-02 -2.071747742593288422e-02 3.675663843750953674e-02 5.896299332380294800e-02 -4.412458278238773346e-03 6.361606996506452560e-03 4.290930554270744324e-02 4.365781322121620178e-02 2.537059225142002106e-02 2.024002186954021454e-02 1.747475191950798035e-02 3.610128536820411682e-02 -5.385959520936012268e-02 5.681420117616653442e-02 -1.839204691350460052e-02 -1.528375502675771713e-02 -9.131232649087905884e-02 -6.730352342128753662e-02 -6.126272492110729218e-03 2.653208002448081970e-02 -3.896086290478706360e-02 1.404899731278419495e-02 3.290580585598945618e-02 4.454694315791130066e-02 4.431427642703056335e-02 4.865298047661781311e-03 -4.731982573866844177e-02 3.916422650218009949e-02 -2.164965867996215820e-02 -2.933355793356895447e-02 -5.732163041830062866e-02 -2.109627239406108856e-02 -2.784251421689987183e-02 -4.883538186550140381e-02 5.435626581311225891e-02 -7.265864312648773193e-02 -2.008196432143449783e-03 -1.509743370115756989e-02 -1.766379922628402710e-02 -3.003910742700099945e-02 -3.333524800837039948e-03 1.144523121183738112e-04 2.841138467192649841e-02 1.013611722737550735e-02 3.868290409445762634e-02 6.131032481789588928e-03 -2.430314384400844574e-02 4.451616853475570679e-02 -4.540933296084403992e-02 -2.538720890879631042e-02 6.928332149982452393e-02 -3.232731670141220093e-02 -2.220178581774234772e-02 1.471572369337081909e-02 1.572719309478998184e-03 3.509569913148880005e-02 4.746471717953681946e-02 -3.284166380763053894e-02 4.947046563029289246e-02 1.784219779074192047e-02 -8.298601210117340088e-02 2.125391922891139984e-02 -3.050697408616542816e-02 3.716083616018295288e-02 -4.681226983666419983e-02 2.361431345343589783e-02 1.335971895605325699e-02 -3.167339414358139038e-02 -1.201854459941387177e-02 -4.077677428722381592e-02 -5.986116081476211548e-02 -3.713831678032875061e-02 -9.771642088890075684e-02 7.426439970731735229e-02 4.599761962890625000e-02 2.317927032709121704e-02 3.034131042659282684e-02 3.470188751816749573e-02 1.429603528231382370e-02 -1.165122026577591896e-03 -1.867684349417686462e-02 -2.843383140861988068e-02 4.008131474256515503e-02 -1.119431704282760620e-01 5.366463214159011841e-02 6.468108296394348145e-02 4.151920974254608154e-02 -2.737479098141193390e-02 -3.442362695932388306e-02 2.358692511916160583e-02 1.437107101082801819e-02 -6.183940917253494263e-02 -6.296894699335098267e-02 2.699593082070350647e-02 -4.162836074829101562e-02 1.517277117818593979e-02 7.968606427311897278e-03 2.337117679417133331e-03 2.193134650588035583e-02 -6.646308302879333496e-02 -9.291116148233413696e-03 3.610019013285636902e-02 -1.151197124272584915e-02 6.002258509397506714e-02 2.943405322730541229e-02 1.957464963197708130e-02 -4.933720454573631287e-02 -3.458319604396820068e-02 -4.153138026595115662e-02 -1.403553318232297897e-02 -1.617895998060703278e-02 -3.367450088262557983e-02 5.409010499715805054e-02 -5.847134813666343689e-02 -3.477639704942703247e-02 -1.811366342008113861e-02 -9.478881210088729858e-02 -7.413909584283828735e-02 5.985193420201539993e-03 -1.587390899658203125e-02 -1.646810024976730347e-02 3.022951819002628326e-02 1.116838008165359497e-01 2.037202753126621246e-02 -6.340285390615463257e-02 -2.129113860428333282e-02 2.378599345684051514e-02 -8.281176909804344177e-03 1.343975588679313660e-02 -1.753199473023414612e-02 6.470427662134170532e-02 6.478618830442428589e-02 3.668816993013024330e-03 -9.634680114686489105e-03 7.213836070150136948e-03 1.185470726341009140e-02 3.081619553267955780e-02 1.956456899642944336e-02 6.723982840776443481e-02 -4.099301993846893311e-02 -8.715559542179107666e-02 9.746465086936950684e-02 3.292655199766159058e-02 2.117989584803581238e-02 -2.828161232173442841e-02 -6.138098984956741333e-02 -7.814045995473861694e-03 3.126137703657150269e-02 4.291726276278495789e-02 -1.213307213038206100e-02 3.016418218612670898e-02 -1.173006296157836914e-01 -4.242714121937751770e-02 -3.371595963835716248e-02 -5.694710090756416321e-02 -8.724464476108551025e-02 -1.609807088971138000e-02 -6.285476032644510269e-03 -8.139073848724365234e-02 3.153484314680099487e-02 -3.944434225559234619e-02 -2.143167890608310699e-02 4.050636291503906250e-02 3.916800394654273987e-02 -2.099049836397171021e-02 -5.605067312717437744e-02 3.275265172123908997e-02 -2.126487717032432556e-02 2.981850691139698029e-02 1.564041525125503540e-02 3.656215593218803406e-02 4.909385368227958679e-02 -4.482737183570861816e-02 2.071433514356613159e-02 4.188960790634155273e-02 -7.779908925294876099e-02 1.149346493184566498e-02 -2.654683962464332581e-02 -8.070453256368637085e-02 1.428355872631072998e-01 5.296021699905395508e-02 -7.405585795640945435e-02 -2.688795886933803558e-02 -1.119159813970327377e-02 -1.947236433625221252e-02 4.701259359717369080e-02 -1.666346937417984009e-02 -1.577196829020977020e-02 8.106514811515808105e-03 4.217505455017089844e-03 4.535845667123794556e-02 3.371521597728133202e-03 -8.668345957994461060e-02 4.329335689544677734e-02 -3.201260045170783997e-02 8.671289309859275818e-03 1.046519633382558823e-02 4.450316354632377625e-02 -2.881918102502822876e-02 2.891145274043083191e-02 1.617510616779327393e-02 -3.035727702081203461e-02 -1.062679337337613106e-03 -6.312962621450424194e-02 1.105269864201545715e-01 -4.111569374799728394e-02 2.181260660290718079e-02 4.062625020742416382e-02 -2.806075662374496460e-02 7.715506013482809067e-03 9.967219084501266479e-04 1.541537116281688213e-03 -2.517353277653455734e-03 -4.379743710160255432e-02 -1.013031154870986938e-01 2.580130100250244141e-02 -5.803099647164344788e-02 7.087918370962142944e-02 -2.422095276415348053e-02 -7.839548587799072266e-02 4.301987215876579285e-02 1.430486980825662613e-02 1.262959744781255722e-02 -1.503022387623786926e-02 3.039697883650660515e-03 5.997997522354125977e-02 -3.459313511848449707e-02 -8.562902361154556274e-02 2.284422080265358090e-04 -4.117726534605026245e-02 1.753671281039714813e-02 2.904895320534706116e-02 4.170451313257217407e-02 -5.658928304910659790e-02 -3.700172901153564453e-02 1.573713868856430054e-02 -4.600381478667259216e-02 -8.659578114748001099e-02 -9.394982829689979553e-03 3.226063773036003113e-02 2.579967724159359932e-03 -1.365648359060287476e-01 9.081326425075531006e-03 4.993704706430435181e-02 -2.523302473127841949e-02 3.957531228661537170e-02 5.131353810429573059e-02 1.264552585780620575e-02 -1.025008484721183777e-01 -1.301692128181457520e-01 3.660826757550239563e-02 2.118080109357833862e-02 -2.902514301240444183e-02 -5.170839652419090271e-02 -7.095642387866973877e-02 -1.456886529922485352e-02 2.927968837320804596e-02 3.554371744394302368e-02 4.318343102931976318e-02 -5.424335971474647522e-02 2.969465684145689011e-03 6.252656877040863037e-02 -2.200457639992237091e-02 -1.890261843800544739e-02 -5.945860221982002258e-02 4.770117811858654022e-03 3.914943709969520569e-02 6.676022894680500031e-03 -7.885095663368701935e-03 -6.294777989387512207e-02 6.364240834955126047e-05 -1.005150824785232544e-01 2.825333178043365479e-02 5.290608480572700500e-02 3.967734426259994507e-02 1.164569985121488571e-02 5.227949586696922779e-04 3.902527689933776855e-02 1.620063185691833496e-02 5.710808932781219482e-02 -2.298767492175102234e-02 -3.594369068741798401e-02 -2.073276555165648460e-03 -2.165748504921793938e-03 2.023864723742008209e-02 -1.358504295349121094e-01 -2.694601938128471375e-02 1.443404797464609146e-02 3.096131980419158936e-02 -3.301477525383234024e-03 -1.822923310101032257e-02 8.820141106843948364e-02 -8.069598674774169922e-02 -5.546950921416282654e-02 5.087903514504432678e-02 7.851434499025344849e-02 -2.629693411290645599e-02 -1.071623526513576508e-02 -6.570127606391906738e-02 3.999952971935272217e-02 1.464264690876007080e-01 -7.263163104653358459e-03 -1.260785162448883057e-01 4.487640410661697388e-02 -2.045560069382190704e-02 -5.694287270307540894e-02 -2.256700396537780762e-02 4.754422605037689209e-02 7.696095108985900879e-02 2.883021719753742218e-02 2.333217114210128784e-02 7.197792083024978638e-02 1.937545649707317352e-02 2.681466005742549896e-02 1.627022400498390198e-02 -9.328247979283332825e-03 3.832351043820381165e-02 8.046220988035202026e-03 -3.233856707811355591e-02 2.755818329751491547e-02 -3.053392656147480011e-02 -2.381210587918758392e-02 4.910393804311752319e-02 -9.360059164464473724e-03 -3.096435219049453735e-02 2.818626724183559418e-02 -1.084589585661888123e-02 -4.978506825864315033e-03 2.780510345473885536e-03 3.748551756143569946e-02 3.985602036118507385e-02 -2.677817456424236298e-02 8.681260049343109131e-03 -3.173247724771499634e-02 -3.505889326333999634e-02 3.468739241361618042e-02 6.522105634212493896e-02 4.140528291463851929e-02 -7.672462612390518188e-02 -4.318181425333023071e-02 5.225763469934463501e-02 3.578305710107088089e-03 -5.738243833184242249e-02 -2.041164413094520569e-02 3.382696956396102905e-02 -6.383746117353439331e-02 8.110397309064865112e-02 -7.703091949224472046e-02 -1.838604919612407684e-02 5.430464819073677063e-02 4.022685810923576355e-02 1.956120319664478302e-02 -6.438850611448287964e-02 2.139346674084663391e-02 2.451828308403491974e-02 1.552325859665870667e-02 -4.710094630718231201e-02 8.621559478342533112e-03 -8.390872180461883545e-02 -1.929388381540775299e-02 1.947770453989505768e-02 1.606846228241920471e-02 -2.428799867630004883e-02 5.589374154806137085e-02 -1.032868251204490662e-01 -3.743161261081695557e-02 3.931474313139915466e-02 -4.636340215802192688e-02 -4.607168957591056824e-02 -2.702208235859870911e-02 -1.200070604681968689e-02 -2.417833916842937469e-02 -3.049344010651111603e-02 -1.067382190376520157e-02 1.411170512437820435e-02 -3.796552866697311401e-02 -5.023089051246643066e-02 -5.533878691494464874e-03 -5.970497429370880127e-02 -3.199938684701919556e-02 -1.566461920738220215e-01 -4.229789599776268005e-02 -8.741633035242557526e-03 1.431330572813749313e-02 