-0.023010, -0.017685, 0.055090, 0.085365, -0.045649, -0.014828, 0.039227, -0.076645, 0.173894, 0.064786, 
-0.028904, 0.006972, -0.128167, -0.125996, -0.192299, 0.172778, 0.000231, 0.142167, 0.072308, 
0.030983, -0.080379, 0.119567, -0.055187, -0.119927, 0.057612, 0.032497, 0.181544, 0.043261, 
0.019888, 0.092564, -0.074448, 0.005860, -0.115550, 0.076297, -0.064356, 0.040035, -0.018246, 
-0.002592, -0.117576, 0.122399, 0.015618, -0.040891, 0.220269, 0.065560, 0.067263, 0.124642, 
0.113655, 0.030158, 0.094460, 0.023317, -0.170516, 0.114004, 0.034468, 0.061451, 0.034737, 
0.199388, 0.093410, -0.073393, 0.007728, -0.130583, -0.072749, -0.113084, 0.047564, 0.042597, 
-0.053571, -0.046107, 0.075160, 0.029394, -0.069416, 0.237964, 0.106459, 0.129707, 0.058447, 
0.002068, 0.087310, -0.230497, -0.118761, -0.017526, -0.110808, -0.225821, -0.118560, 0.141142, 
0.019921, -0.034771, -0.092819, -0.010308, 0.004087, 0.119212, 0.188166, 0.105395, -0.013269, 
0.032212, -0.170246, -0.058811, -0.056212, -0.016321, 0.002443, 0.059178, 0.038235, 0.000056, 
0.050042, -0.122879, 0.037289, 0.121312, -0.032636, 0.216010, -0.004827, 0.104099, 0.057060, 
-0.037488, 0.234297, -0.058843, -0.097726, -0.116508, 0.011617, 0.082415, 0.097982, -0.104892, 
0.029521, 0.020881, 0.011405, -0.099836, 0.090566, -0.097467, -0.089715, 0.114297, 0.053610, 
-0.047250, 0.121209, 0.022741, 0.102867, -0.156070, 0.119793, 0.063513, 0.131257, 0.015739, 
-0.057673, 0.166718, -0.092870, -0.008136, 0.075567, -0.023524, -0.009074, 0.089891, -0.093370, 
0.018205, 0.027370, -0.031305, -0.057369, -0.031120, 0.218366, 0.189750, 0.058192, 0.007827, 
0.036491, -0.033553, -0.055622, -0.043623, -0.009442, 0.008097, 0.169027, 0.097598, -0.035150, 
0.015537, -0.081924, 0.148990, 0.024828, -0.003579, -0.013911, -0.121181, -0.070092, -0.165737, 
0.001403, 0.005200, 0.004273, 0.052003, 0.021126, 0.035173, 0.200018, 0.133232, -0.048208, 
-0.056498, -0.002342, -0.069836, 0.128405, 0.075662, -0.125623, -0.039909, 0.055343, -0.251027, 
0.036123, -0.029119, -0.117883, 0.037140, 0.035539, 0.052236, 0.070917, 0.072006, -0.000922, 
-0.229233, -0.268025, -0.007851, -0.094600, 0.023216, 0.022901, -0.024028, 0.127394, -0.116276, 
0.094297, 0.055587, 0.014069, 0.099642, -0.033957, -0.041427, 0.112323, 0.113575, -0.024241, 
-0.180531, -0.170514, 0.038200, 0.050298, 0.026474, 0.078575, 0.036674, -0.042263, -0.160178, 
-0.054828, 0.037058, -0.119957, -0.049173, -0.061183, -0.160031, 0.147634, 0.062526, 0.125426, 
-0.005875, -0.171536, 0.175905, 0.062608, 0.021785, -0.022265, -0.095762, 0.009180, -0.078497, 
-0.040040, 0.049651, -0.109805, 0.062467, 0.023360, -0.168860, -0.045388, 0.016722, -0.070039, 
0.079180, -0.085799, 0.018341, -0.082314, -0.069522, -0.026542, 0.037315, 0.039108, 0.089071, 
0.146282, 0.002106, 0.066141, 0.116402, 0.024822, -0.050572, 0.074153, 0.051927, 0.029786, 
0.093971, 0.073283, 0.060119, -0.079394, -0.008769, 0.335916, 0.259074, 0.011484, -0.027527, 
-0.013271, -0.105813, -0.053844, 0.126748, 0.065651, 0.068435, 0.025236, 0.139203, 0.109935, 
-0.087715, -0.057603, -0.103229, 0.003423, -0.065811, 0.157579, -0.036060, 0.024283, -0.121289, 
0.034820, -0.046116, -0.008736, -0.113373, 0.087600, -0.034185, 0.063608, 0.093346, -0.070667, 
-0.124321, -0.076580, 0.025128, 0.046994, 0.064686, 0.176834, 0.211733, 0.054282, 0.116027, 
-0.057823, -0.149596, -0.011499, 0.012524, -0.099900, -0.116388, 0.062624, 0.004022, -0.009297, 
0.024447, -0.007524, -0.045592, -0.086355, -0.049365, -0.002896, 0.150209, 0.150149, 0.053119, 
-0.054528, -0.135739, -0.149275, 0.000600, 0.034492, -0.074034, 0.111887, -0.014699, 0.132370, 
0.258840, 0.057727, 0.059703, 0.044417, -0.180181, -0.106848, 0.059627, 0.175858, 0.009340, 
-0.018215, -0.083384, -0.069995, -0.014226, -0.048587, -0.076958, 0.116119, 0.037315, 0.283259, 
0.216319, 0.041098, 0.072849, -0.034321, -0.061846, -0.057539, 0.008654, 0.127954, -0.023406, 
-0.037044, -0.134349, 0.034761, 0.000163, 0.120221, -0.064307, 0.054617, -0.045158, -0.022742, 
0.069076, 0.165778, 0.093374, -0.047639, -0.023689, 0.184745, 0.106941, 0.140580, -0.125833, 
-0.067514, 0.028059, -0.146318, -0.060685, 0.004935, 0.033566, 0.167247, 0.077108, -0.076118, 
-0.045186, -0.188941, 0.012339, 0.007755, -0.167627, 0.007560, -0.016768, 0.164011, 0.125432, 
0.032975, 0.186695, 0.100339, -0.055583, 0.055026, 0.210435, 0.115610, 0.084721, -0.057914, 
-0.034817, -0.266159, 0.116749, 0.146403, -0.051016, 0.045788, 0.012690, 0.110391, 0.052433, 
0.074405, -0.007726, -0.050271, 0.057466, -0.072602, -0.060485, -0.066435, -0.126902, -0.039631, 
-0.107447, 0.030766, -0.077633, -0.002857, -0.036274, -0.140272, -0.048678, -0.080958, -0.047818, 
-0.048669, -0.046912, 0.058382, 0.059486, 0.131747, 0.135915, 0.066940, -0.034848, -0.021215, 
-0.046923, -0.095383, 0.156002, 0.024925, 0.047446, 0.088399, 0.128961, 0.069127, -0.064342, 
-0.040682, -0.105128, -0.063553, -0.033959, -0.040203, 0.047514, -0.057364, -0.018343, -0.024627, 
0.139169, -0.094673, -0.043353, 0.037648, 0.015800, 0.120175, 0.089346, 0.041534, -0.074171, 
0.040177, -0.103767, -0.213058, 0.009289, -0.033083, 0.046568, -0.142541, -0.063743, 0.094648, 
0.038120, 0.042707, -0.043883, 0.153394, -0.029422, 0.106806, 0.145282, 0.128800, -0.094985, 
0.097938, -0.066011, 0.038106, 0.019981, -0.090878, 0.174069, 0.042678, 0.089198, 0.031702, 
0.077518, 0.185662, -0.027188, -0.035391, -0.065572, 0.160165, 0.049544, 0.120407, -0.033527, 
0.003929, -0.084361, -0.016586, 0.071089, 0.094011, -0.057049, 0.157155, 0.090421, 0.200577, 
0.162495, 0.088556, 0.040620, 0.074686, -0.015146, 0.013669, 0.037152, 0.030213, 0.004404, 
0.022962, 0.002119, -0.093722, -0.005896, 0.093813, 0.081249, 0.042343, 0.080583, 0.062602, 
-0.097173, -0.297448, 0.124829, 0.020117, 0.020193, -0.008637, -0.032760, 0.111040, 0.254559, 
0.031176, 0.148243, -0.003790, -0.073066, -0.052030, 0.096413, 0.017355, -0.011034, 0.074812, 
-0.083870, -0.459029, -0.110845, -0.089893, 0.015641, -0.168717, -0.148024, 0.124883, 0.087890, 
-0.117304, -0.067550, 0.065596, -0.030927, 0.066378, -0.058524, -0.014554, 0.061751, 0.112147, 
0.119842, 0.034266, 0.024207, -0.044610, -0.014076, -0.085635, -0.033397, -0.036236, -0.151521, 
-0.041390, -0.019112, -0.051522, -0.039936, -0.164443, 0.003015, 0.076597, -0.059689, -0.013397, 
-0.113059, -0.101655, 0.030191, 0.029631, 0.036337, 0.106233, 0.127270, 0.220471, -0.019648, 
0.089435, 0.059639, -0.004290, -0.078459, 0.005181, 0.026933, -0.075466, -0.011581, -0.092626, 
-0.072944, -0.039613, 0.039828, -0.010594, -0.035417, 0.118455, 0.019710, 0.054014, -0.011664, 
-0.045235, 0.109369, 0.030551, 0.009286, -0.016088, 0.127967, 0.040351, -0.038051, 0.011803, 
-0.020115, -0.114842, -0.254219, -0.088125, -0.119043, 0.008615, 0.064751, -0.002721, -0.084905, 
-0.091907, 0.052422, 0.046000, -0.140925, 0.046218, 0.068194, 0.125979, 0.111174, -0.023799, 
0.015959, -0.095596, -0.079226, 0.002470, -0.071240, -0.108577, 0.017978, 0.011120, -0.070503, 
-0.226778, 0.000847, -0.007182, -0.062513, -0.033459, 0.173337, 0.047740, 0.048899, 0.000967, 
-0.046248, -0.006225, -0.055691, -0.023437, 0.099300, 0.121841, 0.031314, 0.215283, 0.031012, 
-0.141387, 0.026338, -0.000388, -0.045252, -0.111463, 0.052302, 0.023087, 0.226342, -0.043587, 
-0.061250, 0.119267, -0.011173, -0.068611, 0.010508, -0.054009, -0.091722, 0.017626, 0.112853, 
-0.111612, 0.048873, 0.055853, 0.008020, 0.086956, 0.034522, 0.045668, 0.175667, 0.031203, 
0.236000, 0.083105, 0.249223, 0.141695, 0.038397, -0.144058, -0.289699, -0.071361, 0.174497, 
0.009467, 0.100058, -0.111008, -0.054911, 0.028040, -0.091416, -0.027864, -0.114378, -0.054163, 
0.034353, 0.074999, 0.059996, 0.005277, -0.024877, 0.205091, 0.148668, 0.064635, -0.030291, 
0.020107, -0.232533, 0.130074, -0.061207, 0.118671, 0.066659, 0.039380, 0.169229, -0.009446, 
0.066706, 0.004744, -0.021429, -0.030864, -0.011422, -0.096108, -0.167654, 0.170136, -0.128408, 
-0.039797, -0.203928, -0.009285, 0.094471, 0.040835, 0.101733, 0.086597, 0.183666, -0.060206, 
0.041623, -0.126158, 0.095858, 0.138712, 0.035707, -0.001442, -0.028942, 0.102207, -0.065256, 
-0.024136, -0.034668, -0.098694, -0.005308, 0.059607, 0.047357, 0.104293, 0.090262, -0.124775, 
-0.107823, -0.207011, -0.011518, -0.044899, 0.127372, 0.071743, 0.054930, 0.085514, -0.023861, 
0.095439, -0.062364, 0.092060, -0.021503, -0.070479, 0.067001, 0.067469, 0.176236, -0.145025, 
-0.108515, -0.195080, 0.050600, 0.100017, 0.070766, 0.161524, 0.010957, -0.025494, 0.046287, 
-0.022777, -0.068482, -0.029635, 0.017591, 0.053175, -0.035074, 0.066621, 0.163299, 0.081880, 
0.171530, 0.107539, 0.081543, 0.044044, 0.143601, -0.022300, -0.076328, 0.049164, 0.098122, 
0.069819, 0.080567, -0.090627, 0.086149, 0.114023, -0.123400, -0.062621, 0.070160, -0.032740, 
-0.120249, -0.321856, -0.029425, -0.030872, 0.090313, 0.011779, 0.059081, 0.110188, 0.079343, 
0.051093, 0.027436, 0.025589, -0.029817, 0.104732, 0.092467, -0.107070, 0.136065, 0.061418, 
-0.031078, -0.299318, 0.007010, -0.024247, 0.026346, 0.294896, 0.202812, 0.177084, -0.151914, 
-0.093713, -0.123269, 0.136853, -0.045364, 0.060034, 0.176629, 0.064385, 0.085567, 0.017349, 
0.139390, -0.003118, -0.077159, 0.045217, -0.004580, 0.106599, -0.181485, -0.113282, 0.051114, 
-0.044341, 0.049061, 0.014805, 0.004322, 0.069559, 0.060890, -0.037468, -0.095507, 0.011442, 
0.075635, 0.027238, 0.004200, 0.035840, 0.007359, -0.153774, 0.009110, 0.038933, -0.043839, 
-0.059544, -0.024062, -0.001167, 0.177436, -0.042661, 0.127866, 0.103577, -0.152835, -0.014645, 
0.038822, 0.113073, -0.039621, 0.037389, 0.038637, -0.031812, 0.054210, 0.034962, -0.027826, 
0.053537, 0.060904, 0.128050, 0.087717, -0.022987, -0.119310, -0.058390, 0.023256, -0.021014, 
-0.148511, -0.139124, -0.124578, -0.120197, 0.190425, 0.142567, -0.040089, 0.103796, 0.011697, 
-0.111508, 0.030354, -0.002381, 0.166715, 0.049523, 0.084123, 0.103474, -0.034896, 0.026972, 
-0.246865, -0.204084, -0.077825, 0.054923, 0.164069, -0.046610, -0.174986, -0.104727, 0.102842, 
0.037391, -0.062942, -0.127081, -0.027228, 0.019070, -0.015249, 0.014890, -0.041374, -0.017701, 
0.029538, 0.078479, 0.184705, -0.016074, 0.046910, -0.103392, 0.020093, 0.224210, 0.012067, 
-0.029265, 0.022379, -0.053089, 0.077395, 0.025348, -0.160716, 0.063876, 0.105268, -0.150212, 
0.002735, -0.019804, 0.085234, -0.053438, -0.055767, 0.129155, -0.001124, -0.101589, -0.191188, 
0.029643, 0.104302, 0.137612, -0.006514, 0.011390, -0.193219, -0.091202, 0.138889, -0.112329, 
0.030514, 0.102468, 0.079859, 0.016303, -0.030432, 0.123607, -0.016500, -0.212660, -0.085383, 
-0.009500, -0.070489, -0.053710, -0.010864, -0.085843, 0.094821, 0.046435, 0.019356, 0.039443, 
0.100854, -0.043581, -0.089526, 0.074779, 0.069297, 0.163086, 0.142084, 0.128132, -0.103306, 
0.137367, -0.032810, -0.131359, -0.113223, -0.101871, -0.036399, 0.124822, 0.118511, -0.163842, 
-0.065275, -0.058014, 0.050188, -0.059392, -0.115309, 0.164704, -0.034526, -0.004521, -0.076003, 
0.071346, 0.080352, -0.138332, 0.065379, -0.073671, -0.027763, 0.085277, -0.029609, -0.128142, 
0.000613, 0.039359, -0.176776, 0.068620, 0.041551, 0.089485, 0.135705, 0.029418, -0.233325, 
-0.070258, 0.008863, -0.156214, 0.123383, -0.042968, -0.035456, 0.019118, 0.028920, 0.244323, 
0.123042, -0.176653, -0.058058, 0.020650, 0.045112, -0.085366, -0.006585, -0.094242, -0.201472, 
0.035428, 0.062144, -0.128961, -0.035094, 0.029897, 0.067493, 0.111783, 0.150257, 0.310760, 
-0.004383, -0.007196, -0.073512, 0.047946, 0.134991, 0.124348, -0.183353, 0.066084, -0.272132, 
-0.054815, 0.005665, -0.124909, 0.010839, 0.108473, -0.025069, 0.036900, 0.079737, 0.040220, 
-0.062955, 0.007558, 0.027779, 0.044697, 0.011144, -0.021753, -0.008682, -0.003280, -0.170565, 
-0.115574, 0.069035, -0.209888, 0.012246, 0.104831, 0.150473, -0.046108, 0.034091, 0.063609, 
0.005836, -0.124654, 0.034267, -0.034618, 0.024319, 0.140878, 0.056703, -0.089647, 0.040458, 
0.046000, 0.068942, 0.111246, 0.078481, 0.071892, 0.147929, 0.061796, 0.017631, 0.050300, 
0.073603, 0.006204, 0.150243, -0.020387, 0.033843, 0.149145, 0.192127, -0.002552, -0.011319, 
0.161868, 0.131895, -0.061166, 0.090488, -0.023917, -0.022742, -0.080447, -0.077203, 0.072632, 
0.106820, -0.013482, 0.058903, 0.060397, -0.011212, -0.272481, -0.053647, -0.006173, -0.016244, 
0.018196, 0.063427, 0.000709, -0.017291, -0.069207, 0.007444, 0.012973, -0.006038, 0.038182, 
-0.021661, -0.061033, 0.020416, 0.006208, 0.000481, 0.129053, 0.108689, 0.039888, -0.072635, 
0.041921, 0.243568, -0.011353, -0.064003, -0.059949, 0.039866, 0.006550, 0.094959, -0.106499, 
0.022417, 0.121161, 0.059185, 0.046577, -0.015884, 0.068154, 0.090699, 0.022387, -0.132787, 
-0.048296, 0.109569, 0.078847, -0.026261, 0.007083, 0.069251, 0.068719, 0.002352, -0.048698, 
0.035992, 0.160405, -0.092123, -0.014193, -0.129148, -0.097738, 0.028325, 0.113413, -0.142972, 
-0.063444, 0.094296, 0.089371, -0.049504, 0.055524, 0.089598, 0.059930, 0.170177, -0.081719, 
-0.046574, 0.078963, -0.086716, -0.016196, -0.027274, -0.149349, -0.158114, 0.017024, 0.010426, 
-0.146370, 0.079924, -0.036748, 0.026929, -0.051624, 0.040086, 0.001527, -0.069754, 0.149835, 
-0.023143, -0.138166, -0.117926, 0.014340, 0.078481, 0.071388, 0.088675, 0.089943, -0.112051, 
-0.035701, -0.136926, 0.032625, 0.038789, 0.009227, 0.157358, -0.043688, -0.004575, 0.004634, 
0.130645, 0.303950, 0.004415, -0.054036, -0.143127, -0.038481, 0.086632, 0.061692, 0.174483, 
0.028696, -0.097602, -0.093453, -0.058153, 0.013246, -0.047000, 0.012500, -0.039695, 0.050495, 
0.057953, 0.201806, 0.122339, -0.151421, -0.259646, -0.094113, -0.206126, -0.162080, -0.063054, 
0.098281, 0.235037, 0.039759, 0.012911, -0.132808, -0.139733, -0.017109, -0.004025, -0.122251, 
0.022321, 0.089851, -0.115933, -0.003389, 0.177027, -0.041848, -0.012367, -0.201286, -0.019995, 
-0.039172, 0.082669, 0.045704, 0.087224, 0.118443, 0.007745, -0.120987, 0.023697, -0.061403, 
0.008779, -0.030731, -0.109671, 0.149049, 0.027869, -0.033279, -0.096864, -0.258408, 0.119253, 
-0.119561, 0.059422, 0.033408, -0.066781, 0.034168, -0.092539, 0.154442, 0.162210, 0.061063, 
0.029401, 0.054998, 0.130232, 0.061199, 0.078960, 0.008448, 0.011560, -0.091009, 0.122173, 
-0.010207, -0.101918, -0.028403, -0.030566, 0.216025, -0.032744, -0.043625, -0.129636, 0.032442, 
0.234431, 0.087073, 0.001640, -0.077766, -0.096322, -0.069924, 0.053703, -0.041895, 0.116348, 
-0.113207, 0.052352, 0.124599, -0.004492, 0.171900, -0.011589, 0.085571, 0.019487, 0.008132, 
0.220418, 0.167647, -0.021221, -0.034288, -0.084007, -0.126845, 0.233951, 0.050341, 0.178402, 
-0.018914, 0.072092, 0.275391, 0.019662, 0.199005, -0.045764, -0.193654, -0.103161, 0.004535, 
0.001071, -0.080833, 0.051264, 0.127643, 0.066111, 0.127377, -0.018105, -0.198681, 0.208109, 
-0.041846, 0.061461, 0.185787, 0.034508, 0.209474, -0.053849, -0.029746, -0.187370, -0.075703, 
0.014046, -0.082803, 0.019324, 0.227028, 0.025337, 0.105610, 0.082508, 0.023628, -0.130396, 
0.096348, -0.038142, 0.002316, 0.161202, 0.061592, 0.116752, -0.015390, -0.127505, -0.096671, 
-0.157240, -0.227630, 0.026457, 0.002879, -0.034177, -0.206191, 0.034972, -0.133216, 0.114178, 
-0.090077, 0.236799, 0.039406, 0.037515, 0.132131, 0.065472, 0.212370, 0.158786, 0.076533, 
-0.061049, 0.019102, -0.095860, 0.000419, 0.117940, -0.028234, -0.059772, -0.112980, -0.102250, 
0.096746, 0.023853, -0.121211, -0.036059, 0.047076, -0.106712, -0.034447, -0.266487, -0.155345, 
0.016023, -0.067920, -0.103923, 0.097824, 0.155329, 0.173703, 0.040950, -0.108241, 0.080620, 
0.144556, 0.017560, 0.047100, -0.076433, 0.061789, -0.143648, -0.005418, 0.081618, 0.039483, 
0.010598, 0.086691, -0.030227, -0.126338, 0.123462, 0.143294, 0.005505, -0.055854, -0.127019, 
-0.087053, 0.088891, -0.097386, -0.047207, -0.040401, -0.031318, 0.007222, 0.025779, -0.013148, 
0.140886, 0.041737, 0.103256, -0.052890, 0.193605, -0.122922, -0.166705, -0.066069, 0.027486, 
0.118746, 0.031935, -0.173194, -0.105552, 0.051668, -0.009587, 0.045539, -0.046586, 0.041723, 
0.161081, 0.051554, -0.075684, -0.089162, 0.036926, -0.084384, -0.035860, -0.017363, -0.129837, 
0.012266, 0.039120, -0.011207, -0.018169, -0.021817, -0.029039, -0.041299, -0.145212, 0.080947, 
-0.048527, 0.055041, -0.052617, -0.009478, 0.091914, 0.081124, 0.035007, -0.066037, -0.133054, 
-0.133877, 0.119736, -0.107332, -0.081582, -0.002587, 0.112202, 0.109541, -0.030221, 0.070431, 
-0.047899, -0.025582, -0.002405, 0.079741, 0.097412, 0.065996, -0.005563, -0.115741, 0.183353, 
-0.099106, 0.009752, 0.025157, 0.026871, 0.024864, 0.149932, 0.086961, -0.040389, 0.171577, 
0.073070, 0.091499, 0.091494, 0.012212, 0.211345, -0.009845, 0.041967, -0.031525, 0.019622, 
0.043013, 0.105779, 0.019241, 0.005745, 0.115634, -0.005007, 0.068151, 0.086235, -0.083833, 
0.110225, -0.152029, -0.030587, -0.069485, 0.005785, -0.049493, -0.149508, -0.068709, 0.172418, 
0.069995, -0.002612, 0.077908, -0.010779, 0.005782, -0.107521, -0.093251, -0.083398, -0.019404, 
0.110457, 0.012705, 0.009206, -0.151423, -0.072212, 0.028542, 0.098656, 0.137751, -0.026244, 
0.054804, 0.098943, 0.007622, 0.039175, 0.118863, -0.050489, -0.081680, -0.191824, 0.039330, 
0.122051, 0.089539, -0.150305, -0.015303, 0.062624, -0.085922, 0.016632, -0.030561, -0.051228, 
0.049988, 0.081075, -0.220631, 0.102597, 0.049289, -0.144367, -0.084806, 0.053028, 0.063299, 
-0.055873, -0.012854, 0.009248, -0.010304, 0.237355, -0.089439, -0.091636, -0.162211, 0.039875, 
0.086095, 0.019271, -0.135079, 0.139662, -0.097187, -0.092677, -0.009325, -0.059838, -0.011734, 
0.064809, -0.044469, -0.005869, 0.095729, 0.162423, -0.100952, -0.285320, -0.151892, -0.082177, 
0.001732, -0.035679, -0.026596, 0.127201, 0.007267, -0.031807, 0.046074, -0.060199, 0.133547, 
0.009364, 0.098127, -0.033168, 0.044553, -0.016454, 0.094719, 0.196460, 0.114292, -0.055342, 
0.037506, 0.089329, -0.194700, 0.036099, -0.022852, 0.060019, 0.162377, 0.216860, 0.019678, 
0.076929, 0.075460, 0.021923, -0.004135, 0.045559, -0.026792, -0.027578, -0.204911, -0.027426, 
0.010631, 0.012590, 0.059747, -0.091198, -0.003046, 0.101615, 0.017723, 0.031152, 0.121983, 
0.023833, 0.121833, 0.158839, -0.117099, 0.145141, 0.122203, -0.114423, -0.081792, -0.063651, 
0.197284, -0.028805, 0.059486, 0.053377, 0.073055, -0.070634, -0.026518, 0.000887, 0.113539, 
0.051675, 0.113109, -0.140599, -0.015236, -0.050779, 0.138425, 0.174216, 0.147093, 0.028772, 
-0.076554, -0.065042, 0.088315, 0.054305, 0.166611, -0.080015, 0.098222, 0.232404, 0.105718, 
0.141621, -0.089827, -0.094256, -0.010542, 0.093878, -0.020913, -0.105923, 0.171095, -0.101817, 
-0.088414, 0.005207, 0.004764, 0.033574, 0.013320, -0.015554, 0.088114, 0.123362, 0.039104, 
0.040360, -0.065821, -0.035834, -0.006964, -0.024418, -0.005250, -0.016680, 0.133678, -0.013212, 
-0.014905, -0.056548, -0.058902, -0.083525, -0.105152, -0.093171, -0.102654, 0.110899, -0.143824, 
-0.170157, -0.172067, 0.190998, -0.077462, 0.039913, -0.010337, 0.141758, 0.096400, 0.039499, 
0.069783, -0.006303, 0.108324, 0.061215, 0.049886, -0.004430, 0.000182, 0.078812, -0.237952, 
-0.181681, -0.005057, 0.123897, -0.020037, -0.015580, 0.054357, 0.214397, 0.090419, 0.224470, 
-0.080874, -0.069058, 0.004925, 0.063954, 0.082859, -0.056457, 0.030247, 0.177244, 0.061351, 
0.103475, 0.112389, -0.118347, -0.056355, 0.040294, -0.025144, -0.032311, 0.079990, 0.127048, 
0.099161, 0.061007, -0.112653, -0.058776, 0.040693, 0.029884, -0.084509, -0.000415, 0.078399, 
0.008002, -0.231704, -0.014422, -0.112077, -0.035143, -0.036397, 0.049390, 0.144184, -0.008967, 
0.097983, -0.108136, 0.034566, -0.055487, -0.110477, 0.094238, -0.067193, 0.103242, -0.155715, 
-0.036467, -0.184457, -0.024336, -0.101778, 0.010347, -0.113813, 0.051579, 0.217171, -0.111786, 
-0.176385, -0.085426, 0.169754, 0.049961, -0.022144, -0.054880, -0.107323, -0.059643, -0.265524, 
-0.127259, 0.045740, -0.079657, -0.021393, -0.012067, -0.097099, 0.037305, 0.045441, 0.023161, 
0.094925, -0.086231, -0.061092, -0.052920, 0.127835, -0.139610, -0.130999, 0.103827, -0.006894, 
0.079592, -0.146405, -0.053494, -0.024989, 0.094632, 0.038648, 0.083040, 0.168362, -0.005097, 
-0.006526, 0.170041, 0.088200, -0.098653, -0.023025, -0.050131, -0.001044, 0.049371, 0.036498, 
0.072707, 0.019949, -0.087493, -0.009623, 0.046758, 0.124732, 0.081675, 0.021953, -0.105990, 
0.040190, -0.040878, -0.288903, -0.154637, 0.055206, -0.042412, -0.022319, -0.079709, 0.080303, 
-0.008851, 0.253785, 0.049112, -0.068457, -0.095790, -0.233606, 0.073319, -0.093389, 0.046528, 
0.086593, 0.002922, 0.035899, -0.073973, -0.119256, 0.017941, 0.064973, 0.098901, 0.052528, 
0.153283, 0.299852, 0.125935, -0.112297, -0.208211, -0.160162, 0.052997, -0.083196, 0.200427, 
0.047710, -0.008096, 0.066383, 0.059336, 0.081328, -0.088321, -0.075146, 0.147188, -0.062714, 
0.135143, -0.034512, -0.038622, -0.042046, 0.160649, 0.107266, 0.083991, 0.017955, -0.086791, 
0.070241, -0.010047, -0.177282, -0.071876, 0.148323, 0.032368, 0.071115, 0.128086, 0.111105, 
0.086060, -0.167848, 0.059696, -0.076266, -0.123319, -0.013825, 0.009268, 0.148158, 0.001871, 
-0.027178, -0.115164, 0.148247, -0.073242, -0.070955, 0.070757, 0.029903, 0.188482, 0.029783, 
-0.285400, -0.134856, -0.160123, -0.103242, -0.038986, -0.160298, -0.026955, 0.144363, 0.067139, 
-0.118623, -0.009234, 0.078056, 0.072887, -0.111105, -0.028126, 0.041709, 0.176915, 0.051648, 
0.000713, 0.029774, 0.061128, 0.050908, 0.035532, -0.078060, 0.085250, 0.096968, 0.085604, 
-0.014090, 0.065182, 0.086059, 0.042390, 0.040429, 0.015586, 0.088776, -0.013254, 0.125313, 
0.079270, 0.019108, 0.083770, -0.093405, -0.018149, -0.063793, 0.013793, 0.209494, -0.048752, 
-0.058982, 0.052958, 0.036114, 0.078246, 0.056242, 0.079320, -0.001525, -0.026412, -0.001635, 
0.078656, 0.055413, 0.072517, 0.021502, 0.021515, -0.100284, -0.045946, 0.021446, 0.028383, 
0.026901, -0.021522, 0.161259, 0.041605, -0.027155, -0.064482, -0.005880, 0.060121, -0.042352, 
-0.196673, -0.117695, -0.080168, -0.057919, -0.033029, 0.079788, -0.039836, 0.199959, 0.096231, 
-0.077517, 0.036061, 0.164029, 0.076536, 0.054451, -0.097834, 0.038806, 0.099190, -0.126846, 
-0.224624, -0.037986, 0.060059, 0.059812, -0.029112, -0.155158, -0.049832, -0.083917, 0.168032, 
-0.030377, -0.001483, 0.016270, -0.009526, 0.079483, -0.027475, 0.017618, -0.070357, 0.034513, 
0.062878, -0.012383, -0.025679, -0.101573, 0.105099, -0.167379, 0.044652, 0.152453, 0.143244, 
0.097518, -0.011855, 0.026697, 0.074187, 0.031998, -0.045401, 0.003832, 0.072811, -0.001235, 
0.002993, -0.059695, 0.022911, -0.026152, -0.051261, 0.059247, 0.039999, 0.184641, -0.058249, 
0.004203, -0.076392, -0.100885, -0.090228, 0.042664, -0.184441, 0.007566, 0.062593, -0.065192, 
-0.077686, -0.025288, -0.128652, -0.236859, -0.044443, -0.085365, 0.014228, 0.267710, -0.043147, 
-0.175082, -0.073658, -0.011943, 0.007651, -0.105651, -0.003901, 0.052283, 0.044737, 0.096907, 
0.114353, -0.011624, 0.186974, 0.087025, -0.031431, 0.114628, 0.136569, 0.041762, -0.155649, 
-0.033854, 0.014122, -0.061167, -0.075162, 0.078190, 0.078385, 0.079378, 0.089044, -0.012672, 
0.024385, 0.001071, 0.070061, 0.016136, 0.171693, 0.123439, 0.005099, 0.195568, -0.020027, 
0.009771, 0.086406, 0.081282, -0.094400, -0.064370, 0.083480, 0.097244, -0.020704, -0.164767, 
-0.101384, -0.081170, 0.010644, 0.013475, 0.036963, 0.056387, 0.100495, 0.013245, -0.236587, 
-0.078322, -0.019637, 0.134980, -0.014340, -0.036374, 0.186375, 0.058105, -0.101184, -0.086917, 
-0.092702, -0.179579, -0.220759, -0.166784, -0.005800, -0.096165, 0.090287, 0.265266, -0.184628, 
-0.145625, -0.080560, -0.006122, 0.023947, 0.068584, 0.153489, 0.009680, 0.140280, -0.054100, 
-0.078907, -0.203386, -0.028189, -0.082504, 0.005988, 0.084410, 0.196892, 0.204762, -0.072251, 
-0.162496, 0.004558, -0.061990, 0.033899, -0.027380, 0.098133, 0.120209, -0.033181, 0.022419, 
-0.053169, -0.002834, 0.076593, -0.076410, 0.084382, -0.008354, 0.047798, 0.094688, -0.068968, 
-0.129130, -0.084072, 0.050304, 0.065101, 0.005231, 0.108352, 0.036685, -0.007487, -0.104581, 
-0.042017, 0.019168, 0.094120, -0.099144, 0.147990, -0.015950, -0.024177, 0.142615, 0.183112, 
0.044719, 0.008429, 0.030547, 0.014732, -0.018407, -0.082952, -0.012328, 0.124773, -0.112411, 
0.010914, 0.063553, 0.004152, -0.090546, 0.038592, 0.145101, -0.101014, 0.012741, 0.086053, 
-0.068941, 0.039895, -0.047835, -0.035638, -0.128710, 0.032453, 0.008091, -0.078217, 0.006833, 
-0.021410, 0.103630, 0.167356, -0.011690, 0.016784, -0.044033, 0.010249, -0.051584, -0.137466, 
-0.050834, 0.063672, -0.075377, 0.069970, -0.020330, 0.152673, 0.082160, 0.021304, -0.124203, 
-0.040319, 0.030133, 0.069510, 0.088801, 0.049670, 0.030925, 0.066022, 0.110014, 0.055162, 
-0.004649, 0.021046, -0.053931, -0.041591, -0.029052, 0.089566, -0.004114, 0.037400, -0.109799, 
0.005049, 0.120645, 0.073228, 0.084328, 0.052679, 0.084510, -0.043714, 0.037937, -0.166918, 
0.058282, -0.036267, -0.025040, -0.052445, 0.068258, 0.123198, 0.026338, -0.070659, 0.177772, 
-0.017528, -0.158451, -0.142483, 0.069419, -0.032042, 0.005455, 0.009600, 0.068836, -0.131669, 
0.000620, 0.049149, -0.011548, -0.082218, 0.052925, 0.050112, -0.003623, 0.111044, 0.160640, 
-0.008150, -0.203505, -0.019093, 0.001678, 0.095666, -0.071399, 0.074270, 0.224710, -0.106448, 
0.001178, 0.114262, -0.249795, -0.061725, 0.120364, 0.201495, -0.050712, 0.109701, 0.047111, 
-0.049307, 0.021206, 0.060633, 0.033638, 0.050955, 0.084727, 0.014500, 0.092691, -0.086705, 
-0.089450, 0.086071, 0.074137, -0.011327, -0.012917, -0.022668, -0.104943, 0.008730, 0.065833, 
0.078918, 0.101801, -0.040855, 0.016225, 0.110837, -0.039020, -0.077653, 0.116940, 0.102028, 
0.011267, -0.002133, 0.109146, 0.007895, 0.136608, -0.086141, -0.035760, 0.044098, 0.083479, 
0.083501, 0.091408, 0.099708, 0.060941, -0.038199, -0.018436, -0.227267, -0.074265, 0.168574, 
0.129655, 0.028797, 0.045176, 0.090457, 0.090954, -0.095476, -0.011463, 0.102171, 0.276050, 
0.179619, -0.094067, 0.073935, 0.014421, 0.053779, 0.209704, 0.128161, 0.080091, -0.125510, 
-0.037779, -0.051539, 0.029734, -0.074002, 0.185844, -0.002399, 0.080764, 0.069352, -0.087799, 
-0.033000, -0.034297, -0.031519, 0.072170, 0.155573, -0.037712, -0.148570, 0.057257, -0.122347, 
0.087565, 0.047884, -0.059948, 0.076962, 0.136569, 0.041016, 0.151844, 0.013375, -0.160649, 
-0.073362, 0.075370, 0.006964, 0.112946, 0.066809, -0.003769, 0.006082, 0.036464, -0.213058, 
-0.166882, 0.064426, 0.093062, 0.017084, -0.040474, 0.027766, 0.063746, 0.067732, -0.042728, 
0.038383, -0.184429, -0.107501, -0.025114, -0.086257, -0.049929, 0.105297, 0.085994, -0.186620, 
-0.073647, -0.029884, -0.081668, 0.105759, 0.019236, -0.084109, 0.120616, 0.135747, -0.029042, 
0.026420, -0.126647, 0.016595, -0.018877, 0.068719, 0.104817, 0.003168, 0.144796, -0.251781, 
-0.021605, 0.052866, -0.018787, -0.105498, 0.039700, 0.051734, 0.022747, 0.044161, 0.081816, 
-0.124571, 0.017807, 0.039307, 0.128686, 0.068704, -0.000506, -0.028553, 0.123052, -0.053197, 
-0.165499, 0.029841, 0.083003, 0.050538, 0.025656, -0.040977, -0.116664, -0.038674, -0.123657, 
0.062183, -0.005090, 0.010855, -0.010033, 0.046431, 0.047635, 0.016710, 0.174528, 0.191273, 
0.024410, -0.009977, 0.087123, 0.108338, 0.195726, -0.008928, 0.001004, 0.019933, -0.094532, 
0.160697, 0.033808, 0.051558, 0.160371, -0.006975, 0.167252, 0.168175, 0.144378, -0.059554, 
0.169400, 0.052077, -0.026332, 0.025582, 0.073853, 0.083767, 0.014623, 0.002650, -0.051731, 
0.037597, -0.011377, 0.142570, 0.034646, -0.033956, -0.179215, -0.045650, 0.023907, 0.015489, 
-0.073036, 0.067768, -0.078063, -0.026901, -0.137868, 0.096185, 0.106290, -0.033087, 0.042257, 
-0.000308, 0.146076, 0.127318, 0.050502, 0.061876, 0.140099, 0.051327, 0.222382, 0.041402, 
-0.166864, 0.041721, -0.047593, -0.095414, 0.074074, 0.033979, 0.059500, 0.122210, 0.038102, 
0.021876, -0.085030, 0.070209, 0.055860, 0.060176, 0.181790, 0.164424, 0.098463, -0.034630, 
0.009002, -0.004836, 0.140315, 0.021474, -0.080079, 0.159112, -0.039378, 0.042672, -0.030142, 
-0.035989, 0.087243, -0.135788, -0.058010, 0.190842, 0.029716, -0.053140, 0.136066, 0.075191, 
-0.053091, -0.052623, 0.078139, 0.066214, 0.059647, 0.244258, 0.079144, 0.055420, -0.175285, 
-0.090409, -0.029531, -0.107578, -0.089413, 0.096002, -0.131871, -0.097244, -0.023132, 0.183173, 
-0.134540, 0.048532, -0.022039, 0.033083, -0.162641, 0.100524, 0.044709, -0.037268, -0.127175, 
0.071805, 0.100151, 0.040067, -0.033124, -0.008471, -0.088718, 0.064682, 0.078352, 0.089221, 
0.018681, -0.069199, 0.030948, -0.031063, -0.028130, 0.182690, 0.077122, -0.073942, -0.072495, 
0.030094, 0.156933, 0.103157, -0.041173, 0.046142, -0.024222, -0.078136, 0.089263, 0.010388, 
-0.084056, 0.045934, -0.023242, -0.137566, -0.088025, -0.046886, 0.023589, -0.068730, -0.101947, 
-0.119482, 0.029583, -0.024781, 0.019115, 0.124797, -0.105273, -0.083776, 0.171842, 0.000340, 
-0.197101, -0.104269, -0.080356, -0.094854, -0.066526, 0.050190, 0.017212, -0.080768, -0.069376, 
0.161008, 0.051558, 0.020925, -0.019126, 0.048646, 0.051433, -0.089219, -0.163808, -0.090317, 
0.024365, 0.076566, -0.010623, 0.035127, -0.121659, -0.156615, -0.086741, -0.078019, -0.068426, 
0.103777, -0.079880, -0.000411, 0.075090, -0.058732, 0.013507, 0.046230, 0.102152, 0.008708, 
0.054053, 0.090694, 0.032287, -0.035617, 0.118741, -0.013776, 0.051713, -0.166555, 0.004313, 
0.042410, 0.067488, -0.095412, 0.034066, 0.014757, -0.159133, -0.037898, 0.077103, -0.147309, 
-0.132669, 0.054059, -0.155563, -0.071660, 0.006544, -0.198596, -0.134764, -0.050419, 0.061426, 
-0.077990, -0.087914, 0.100695, 0.059724, -0.053277, -0.035311, 0.016905, -0.020702, -0.195733, 
0.018138, 0.026725, -0.017699, 0.130921, 0.082872, -0.127244, -0.043887, -0.121767, 0.108492, 
0.011092, -0.047835, 0.106230, 0.033921, 0.092882, 0.072650, 0.155470, -0.032651, -0.137996, 
0.004154, 0.158083, -0.055516, 0.042901, -0.050188, -0.155234, -0.136706, -0.050730, 0.043823, 
0.025244, -0.114896, 0.121004, 0.096559, -0.069875, 0.101901, 0.073901, 0.182544, -0.103276, 
-0.026571, 0.033304, 0.006860, -0.016505, -0.033583, -0.070329, 0.083265, 0.155498, 0.031163, 
0.146912, 0.169099, 0.029396, 0.087249, -0.044206, -0.046885, -0.098362, -0.091917, 0.066979, 
0.115559, -0.077629, 0.129974, 0.156133, 0.027652, 0.103182, 0.033296, 0.215215, -0.039910, 
0.231368, 0.262978, -0.039466, 0.049500, -0.051942, -0.010916, -0.066671, -0.122941, -0.059587, 
0.123539, 0.132720, 0.069443, 0.081681, 0.044284, 0.128247, -0.010785, -0.013104, -0.099791, 
0.008080, -0.041370, 0.036339, -0.037206, 0.035840, 0.121850, 0.062439, 0.029482, 0.050272, 
0.050605, -0.093024, 0.019535, -0.004868, -0.065270, -0.111691, -0.138204, -0.091392, 0.006557, 
0.145515, 0.048226, 0.080139, 0.014484, -0.069702, -0.055103, -0.086149, -0.167716, 0.220111, 
-0.022658, -0.008277, 0.020703, 0.085716, -0.026281, -0.010174, 0.153925, -0.066012, 0.101818, 
0.045387, 0.013298, 0.000140, -0.030641, 0.057890, 0.068232, 0.026856, -0.073500, 0.270483, 
-0.096220, -0.068293, 0.042054, -0.040204, 0.015268, 0.058003, 0.105008, 0.046957, 0.112812, 
-0.037993, 0.183141, -0.103244, 0.010098, 0.069799, -0.051869, -0.146001, -0.261565, 0.061929, 
-0.069584, 0.013103, 0.080068, -0.022088, -0.023056, -0.010008, 0.048776, -0.141176, 0.178363, 
-0.019575, 0.005574, -0.047620, -0.006965, 0.024623, -0.157973, -0.180469, -0.136850, 0.171947, 
-0.067946, -0.038699, 0.040123, -0.024694, 0.035857, -0.030187, -0.000138, -0.003337, -0.202800, 
-0.019159, -0.011565, 0.078633, -0.012090, -0.051108, -0.061987, -0.045175, -0.173742, 0.120631, 
0.041986, -0.030308, 0.043291, 0.123532, 0.119608, -0.055367, 0.004511, -0.025991, -0.085668, 
0.006863, -0.121835, 0.077290, 0.097852, -0.059235, 0.073278, 0.100357, -0.059857, -0.207291, 
0.104493, -0.098352, 0.137200, 0.095003, 0.041003, -0.003035, 0.052873, -0.004823, -0.179641, 
-0.151630, -0.157284, -0.008624, 0.039025, -0.190332, 0.095255, 0.163176, -0.017117, -0.032493, 
-0.043297, -0.044804, -0.034773, 0.096081, 0.107858, 0.077862, 0.042294, 0.136554, -0.173424, 
-0.013655, -0.040722, 0.170370, -0.034161, -0.117108, 0.002104, -0.000123, 0.008124, 0.018600, 
-0.138947, -0.001634, -0.011291, 0.007427, -0.105671, 0.210454, 0.062861, -0.053842, -0.046398, 
-0.045038, 0.012077, 0.058206, 0.009026, -0.037145, 0.076032, 0.079599, -0.055953, -0.117576, 
-0.027672, -0.009118, 0.015593, 0.057794, -0.129321, 0.112817, 0.057764, 0.010351, 0.024987, 
0.060169, -0.032412, 0.081936, 0.026080, -0.133119, 0.157133, 0.072272, -0.006795, -0.007920, 
0.057693, -0.051682, 0.132635, -0.010396, 0.014131, 0.172252, -0.030797, 0.017802, -0.000505, 
-0.121268, 0.247683, -0.049674, -0.023697, 0.157887, 0.061442, 0.000507, 0.048346, 0.081418, 
0.001018, -0.093551, 0.108806, 0.092399, -0.081235, 0.142590, 0.010600, 0.096563, -0.116760, 
-0.102566, 0.088780, -0.150252, -0.080495, 0.072753, -0.015865, 0.003474, 0.110117, 0.109167, 
-0.106180, -0.140685, -0.036816, 0.047675, -0.152046, 0.077476, 0.084147, 0.008506, -0.041120, 
0.101071, 0.177197, 0.059905, -0.000666, 0.066473, -0.162592, -0.010636, -0.074991, -0.008419, 
0.068625, -0.105032, 0.104029, 0.024842, -0.037275, 0.059141, 0.020368, 0.031318, -0.027188, 
-0.167870, 0.175601, 0.048843, -0.077161, 0.015538, 0.031935, 0.039131, 0.020694, -0.017431, 
-0.022863, 0.098415, 0.081569, -0.136052, 0.043166, -0.231162, -0.067414, 0.012110, 0.019834, 
-0.138102, 0.133227, 0.092673, -0.200583, 0.083673, 0.002471, 0.020372, 0.090655, 0.043221, 
-0.127168, -0.127164, -0.021310, -0.081629, -0.018693, -0.014119, -0.021753, -0.067035, 0.154813, 
0.075577, 0.003770, 0.083697, 0.016106, -0.146356, 0.074186, 0.129703, -0.000377, -0.070726, 
-0.063847, -0.074542, 0.108881, -0.085356, 0.042355, 0.145438, 0.043724, 0.230216, 0.010792, 
-0.054494, 0.128445, 0.047333, 0.027654, -0.009498, -0.085585, -0.055516, -0.112497, -0.052900, 
-0.126805, -0.082553, 0.059659, -0.103192, 0.096040, 0.053176, 0.218542, 0.170426, -0.039146, 
0.001482, -0.102626, 0.101448, 0.028040, 0.022504, 0.112997, 0.064842, 0.068430, -0.023793, 
-0.205846, -0.089774, 0.203326, -0.049428, 0.002693, 0.067445, -0.067321, 0.002086, -0.216318, 
-0.106375, -0.102320, -0.121756, -0.049510, 0.098487, 0.064486, 0.186167, 0.100367, -0.009881, 
-0.126656, -0.180585, 0.111913, -0.017854, 0.002705, 0.171832, 0.064073, 0.130119, -0.220611, 
-0.163776, -0.206169, 0.074184, -0.066022, 0.113882, 0.127060, 0.180330, 0.056909, -0.166568, 
-0.089647, -0.023624, 0.076480, -0.003650, -0.103183, 0.088171, 0.122595, 0.025209, 0.016245, 
-0.021955, 0.100742, 0.016424, 0.134888, 0.150023, -0.106200, 0.031481, 0.024041, 0.048330, 
0.029528, -0.051910, 0.153718, 0.058917, 0.097282, 0.026813, -0.086849, -0.165939, -0.135750, 
-0.028561, -0.040627, -0.087909, 0.028089, 0.132108, 0.029985, -0.033074, 0.076845, 0.075655, 
0.086995, 0.167717, -0.034479, 0.024594, 0.124044, -0.138280, 0.000819, 0.050406, -0.014417, 
0.018206, 0.150899, -0.143364, 0.108863, 0.169892, 0.044041, 0.130471, -0.001582, -0.052999, 
0.036135, -0.066434, -0.130638, 0.003220, 0.073816, -0.073252, 0.108299, 0.048058, 0.044307, 
0.019258, -0.014778, -0.116550, -0.066854, 0.102000, -0.263189, -0.178957, -0.077457, -0.019521, 
-0.123022, 0.051954, -0.053902, -0.046334, 0.002312, 0.032870, -0.060264, -0.107549, -0.047579, 
0.004001, 0.138016, -0.069829, 0.062145, 0.125854, 0.079568, 0.164158, -0.019034, 0.174314, 
-0.074939, -0.179259, 0.029559, -0.072964, 0.057758, -0.013416, 0.119791, 0.027441, 0.143710, 
0.009690, -0.091654, 0.063269, 0.025099, 0.042803, 0.118747, 0.169991, 0.077583, 0.216982, 
-0.141652, -0.007224, 0.166669, -0.083356, 0.018296, -0.090482, -0.126738, -0.071624, -0.129052, 
0.018755, 0.240901, -0.106557, -0.047145, 0.076085, 0.028766, 0.031285, 0.030442, 0.118065, 
-0.128118, -0.089842, 0.053348, -0.080373, 0.084661, 0.047136, -0.029408, -0.035668, -0.114830, 
-0.075446, 0.034318, -0.052942, -0.087333, -0.096049, -0.013085, 0.089625, 0.035000, 0.165811, 
-0.053720, -0.071147, 0.109437, -0.040100, -0.170586, -0.006111, 0.048486, -0.088888, -0.084954, 
0.053975, 0.091071, 0.068072, 0.121418, -0.022938, 0.133805, 0.142771, -0.073697, 0.071082, 
0.023956, -0.013878, 0.058219, 0.009103, -0.095651, 0.027276, 0.165351, 0.034422, -0.062185, 
-0.043147, -0.016355, -0.025316, 0.074875, 0.161711, -0.054822, -0.021378, -0.100681, -0.078978, 
0.020810, 0.161925, -0.003257, 0.018298, 0.021863, 0.064326, 0.138587, -0.010732, -0.299996, 
-0.174390, 0.077843, -0.034418, 0.104467, 0.116298, -0.113162, -0.166618, 0.052328, 0.109543, 
-0.106090, -0.060620, -0.005989, -0.083520, 0.050487, -0.028556, 0.039022, -0.008200, 0.023484, 
0.169183, -0.065172, 0.104198, -0.079420, -0.051768, -0.000898, -0.056617, 0.021813, -0.033154, 
0.091074, 0.324997, -0.036487, 0.007405, -0.013257, -0.059136, -0.034739, 0.051068, 0.070967, 
-0.006693, 0.190466, 0.042235, -0.031238, 0.057021, -0.047076, 0.088799, -0.084503, 0.010767, 
0.064443, 0.159568, -0.093970, 0.031049, 0.038240, -0.045290, 0.024789, 0.104273, -0.124513, 
0.007586, 0.133091, 0.025789, 0.008312, 0.138141, -0.151573, 0.020333, 0.000712, -0.092974, 
0.139032, 0.082950, 0.115962, 0.041368, -0.065296, 0.049879, 0.125569, -0.018170, -0.045987, 
-0.132325, -0.317629, -0.057508, -0.039737, 0.228164, -0.107570, -0.171153, -0.000458, -0.040665, 
0.012801, 0.108557, 0.051122, 0.027264, -0.105554, -0.039756, 0.057618, -0.030798, -0.043314, 
-0.077186, -0.186892, -0.049895, -0.016774, 0.299035, -0.214238, -0.119983, 0.069341, -0.174382, 
-0.010965, 0.287206, -0.098382, 0.030745, -0.104563, 0.092790, 0.027311, -0.009189, 0.006885, 
-0.033299, 0.049613, -0.029830, 0.063100, 0.180967, -0.126597, 0.136373, -0.039799, -0.045951, 
-0.118262, 0.204475, 0.011836, 0.085590, -0.006468, -0.026473, 0.113934, -0.100651, 0.081335, 
0.223716, 0.117508, 0.001173, -0.014547, 0.213821, 0.029043, 0.149165, 0.097740, -0.026664, 
-0.030330, 0.064455, 0.081272, 0.105590, 0.194637, -0.128408, 0.117556, -0.044991, 0.023602, 
0.377661, 0.171548, 0.140458, -0.038069, 0.176603, 0.161816, 0.082915, -0.053006, -0.048298, 
0.211251, -0.066800, -0.053290, 0.052839, 0.035959, 0.069425, 0.124362, 0.086590, -0.028815, 
-0.153345, 0.073968, 0.115153, 0.069275, -0.154951, -0.264528, -0.074064, -0.002020, 0.107256, 
-0.090697, -0.079811, 0.050114, 0.014144, -0.072516, 0.086631, 0.073699, 0.073558, 0.014342, 
-0.037179, -0.036897, 0.115090, -0.052257, 0.027443, 0.200137, 0.146798, 0.209396, -0.096838, 
-0.022640, 0.137523, -0.025474, -0.060888, -0.113744, 0.032260, -0.056808, 0.162636, -0.060887, 
0.009220, -0.024502, 0.035651, 0.086760, -0.029552, 0.101800, 0.076597, 0.063771, -0.132805, 
-0.023812, -0.103280, -0.161493, 0.011683, -0.033611, 0.134471, 0.006013, 0.041620, 0.066338, 
0.078658, 0.200300, -0.057696, -0.065964, -0.028055, -0.085167, -0.018568, 0.107517, 0.003790, 
0.059927, 0.014256, 0.048107, -0.006709, -0.030686, 0.058942, 0.009507, 0.175356, -0.048371, 
0.153187, 0.277223, -0.082099, -0.037371, -0.183784, -0.015004, 0.018578, 0.088909, 0.064206, 
-0.079819, -0.094656, 0.067589, -0.014561, 0.119271, 0.052237, 0.061095, -0.028638, 0.068499, 
0.129793, 0.015951, -0.129532, -0.087615, 0.202606, 0.078699, 0.233536, -0.087977, -0.100534, 
0.037695, -0.119520, 0.063951, 0.086196, 0.150127, 0.247342, 0.160174, 0.012509, -0.033902, 
-0.082461, 0.044334, 0.119127, -0.096763, -0.174290, -0.037484, 0.147136, 0.131536, 0.217612, 
0.069019, -0.025616, 0.051155, 0.038399, 0.049196, -0.013338, 0.126657, -0.099226, 0.121234, 
-0.057957, -0.012813, -0.085689, -0.261200, -0.105346, -0.141188, -0.149041, 0.060491, 0.016747, 
0.012431, -0.056073, 0.037915, -0.084835, -0.021885, -0.119986, 0.083003, -0.066084, -0.055941, 
-0.003255, -0.006948, -0.033257, -0.075967, 0.029017, -0.007204, -0.059330, 0.003317, 0.173683, 
0.059640, 0.118046, 0.019674, 0.048757, -0.032194, 0.035170, -0.013917, -0.115860, 0.093383, 
0.145183, 0.141848, -0.001021, -0.074479, -0.000079, -0.016604, 0.147952, -0.121187, 0.190237, 
-0.021960, 0.100253, -0.046086, 0.075283, -0.009229, -0.043863, -0.011061, -0.019720, 0.059549, 
0.013759, 0.023401, 0.082437, -0.093194, 0.096311, -0.064654, 0.032331, 0.079890, 0.143258, 
0.065703, 0.063295, 0.097859, -0.118168, 0.063457, -0.090052, 0.044308, 0.019308, -0.151692, 
-0.129862, 0.158000, -0.114268, -0.090542, 0.063762, 0.017814, -0.132215, -0.072824, 0.214657, 
-0.022026, 0.092712, 0.094091, -0.042449, -0.006582, 0.012008, 0.084925, -0.003305, -0.194792, 
-0.181111, -0.100443, -0.081988, -0.061581, -0.044745, -0.171725, -0.041413, -0.154496, 0.029110, 
0.084006, 0.069547, -0.039429, 0.033120, -0.070103, 0.090422, -0.047826, -0.036166, -0.177079, 
-0.000645, 0.059779, 0.016496, -0.033703, -0.091619, -0.018783, 0.034327, -0.085923, 0.076628, 
0.030142, 0.067813, 0.077560, -0.020230, 0.036430, -0.050287, 0.025616, 0.076029, 0.062330, 
-0.009712, 0.137975, -0.060105, -0.045576, 0.106927, 0.094395, -0.004431, -0.135967, -0.293536, 
-0.087925, 0.002872, -0.071288, -0.033137, 0.012772, -0.057606, 0.077776, -0.030901, 0.083910, 
-0.034517, 0.090986, 0.049731, 0.030562, 0.257413, 0.087247, 0.245416, 0.062328, -0.057394, 
-0.016206, -0.022477, -0.120435, 0.071695, 0.108725, -0.035391, 0.022856, -0.011838, -0.213041, 
0.056142, -0.092390, 0.079263, -0.101755, -0.007508, -0.232436, -0.170939, -0.054748, -0.031187, 
-0.065968, 0.103400, 0.033153, -0.023166, -0.004827, 0.099671, -0.049789, -0.168614, 0.031532, 
0.069200, 0.097795, 0.207676, -0.025319, 0.058938, 0.015769, 0.102207, 0.146645, -0.060960, 
0.032091, 0.122184, -0.056873, 0.132528, -0.155520, 0.045368, -0.148630, 0.090438, -0.135139, 
0.000985, -0.067155, 0.153048, 0.052749, -0.072963, -0.007695, 0.099403, -0.009433, -0.121662, 
0.063312, 0.045989, 0.100702, 0.105149, -0.026065, -0.062695, 0.082448, 0.140470, 0.093069, 
-0.148105, 0.081989, -0.115008, 0.041328, 0.105685, -0.014894, -0.052827, 0.072209, -0.073617, 
-0.027844, 0.005927, 0.045580, 0.087535, -0.012875, 0.048966, -0.086320, -0.027765, -0.095526, 
-0.216722, 0.042779, -0.129964, 0.027770, 0.017216, -0.102114, -0.196949, 0.028454, 0.057586, 
0.022158, 0.079089, -0.158377, 0.043622, -0.009146, 0.123166, 0.046174, -0.044918, -0.072033, 
0.102698, -0.017364, -0.014756, -0.097046, 0.092898, -0.006053, 0.148588, 0.082070, 0.003736, 
0.016194, -0.044374, 0.013801, 0.092825, -0.059175, 0.043549, 0.221378, 0.130394, -0.015810, 
-0.009866, 0.229732, 0.111780, 0.003239, -0.031544, -0.044942, -0.022332, 0.090256, -0.061640, 
-0.022021, -0.012054, 0.106924, -0.075781, 0.050060, -0.181439, 0.073124, 0.016860, -0.018475, 
0.029127, 0.251972, 0.178189, -0.232148, 0.081187, -0.073198, -0.214730, -0.034436, -0.035152, 
0.019133, 0.020110, 0.084563, -0.100179, -0.061802, -0.018584, 0.003331, -0.071136, -0.165428, 
-0.058946, 0.129621, -0.010117, 0.063519, -0.043293, -0.047349, 0.000614, -0.109885, -0.046415, 
-0.023766, 0.147382, 0.075267, -0.118882, 0.017009, -0.090625, 0.027359, 0.015648, -0.051383, 
0.115893, 0.041995, -0.113847, 0.161065, 0.010207, 0.124202, -0.081866, -0.095784, 0.050993, 
-0.054430, 0.041203, -0.037238, -0.024734, 0.082100, -0.044508, 0.145298, -0.008999, 0.055152, 
-0.044056, 0.029745, 0.002782, 0.100289, -0.034348, 0.082116, 0.087061, 0.022904, 0.217347, 
-0.107611, -0.072230, -0.188110, -0.047440, -0.049462, 0.138610, 0.046266, -0.083209, -0.054267, 
0.066094, 0.125794, -0.031421, -0.060590, 0.020583, 0.098550, -0.004841, -0.151490, 0.091969, 
-0.012396, 0.111908, -0.009912, 0.075672, 0.092845, 0.091084, 0.050691, -0.013225, 0.070622, 
0.172423, 0.008702, -0.085729, -0.087600, 0.049335, 0.107973, 0.222992, -0.129128, 0.069552, 
-0.034608, -0.014600, 0.193544, -0.044917, -0.000792, -0.084221, 0.122262, -0.044787, -0.058819, 
0.177989, 0.000710, 0.078952, 0.017673, -0.052539, -0.024349, 0.004100, -0.022056, 0.176189, 
-0.113524, 0.101982, 0.123000, 0.073330, 0.031856, -0.051674, 0.037318, -0.046575, -0.168947, 
0.156425, 0.101064, -0.060866, 0.107900, -0.022504, 0.150608, 0.010744, 0.123651, -0.102191, 
0.260117, 0.013098, 0.020115, 0.072851, 0.037101, 0.033580, -0.050854, 0.014459, -0.196198, 
0.026528, 0.035144, -0.015614, 0.042198, -0.097973, -0.001693, 0.182057, 0.003892, 0.043410, 
0.114958, 0.172132, -0.050453, 0.035460, 0.116353, 0.026580, 0.100378, 0.082270, -0.002190, 
-0.152808, -0.076518, -0.050788, -0.057530, 0.008457, -0.018336, 0.027067, -0.097702, 0.028608, 
0.109280, 0.113189, -0.099159, -0.032809, -0.033075, 0.172306, -0.026375, -0.023333, 0.088361, 
-0.062255, 0.048728, -0.099364, -0.017473, 0.025361, 0.150337, -0.023565, -0.051662, 0.078031, 
-0.070567, -0.167544, 0.008411, -0.022470, -0.050084, 0.105547, 0.110714, 0.111838, 0.061602, 
0.016595, -0.025553, -0.002707, -0.124241, -0.034958, 0.156819, 0.162072, 0.039243, 0.056458, 
-0.094043, -0.068089, 0.005067, -0.044241, 0.005979, 0.027586, 0.099528, -0.080753, -0.215386, 
0.034539, 0.176997, -0.091452, 0.023047, 0.011624, 0.086394, -0.068353, -0.102233, 0.115185, 
0.011299, -0.009497, -0.086012, -0.073677, 0.003273, 0.104315, 0.154098, 0.019670, -0.202458, 
0.110989, 0.143405, -0.105310, -0.120150, -0.180427, 0.055913, -0.016620, -0.008712, 0.036938, 
0.066751, 0.091030, -0.033340, -0.090994, 0.022673, 0.228335, 0.023615, 0.050814, -0.039291, 
0.082992, 0.066704, -0.027922, 0.035504, 0.009887, -0.025531, -0.014747, -0.140847, -0.023964, 
-0.062238, -0.047469, 0.051001, -0.028153, 0.079996, 0.024462, -0.041346, -0.011745, 0.135268, 
-0.156645, -0.128084, -0.057640, 0.050255, 0.220708, 0.088185, 0.088833, -0.172967, 0.031562, 
0.059576, 0.035502, -0.077676, 0.052778, 0.054920, -0.055404, 0.083577, -0.066503, 0.136007, 
-0.032977, -0.305480, 0.049050, -0.244751, 0.169016, -0.051859, 0.025616, 0.004658, -0.033309, 
-0.128923, -0.145935, -0.071290, 0.119952, 0.169763, -0.068149, -0.049190, 0.044333, 0.145080, 
-0.072279, -0.053820, -0.086317, 0.025513, 0.145018, -0.016796, -0.096461, -0.061051, -0.021632, 
-0.024407, -0.050647, -0.107395, -0.029585, 0.093461, 0.055821, 0.074151, -0.059050, 0.080674, 
-0.163601, 0.091119, -0.002669, 0.051938, 0.083574, 0.043958, 0.148302, -0.108965, -0.020049, 
-0.101195, -0.104446, 0.035010, 0.002359, 0.050586, -0.056596, 0.010309, 0.175851, -0.049153, 
0.061936, -0.122495, -0.034043, -0.117781, 0.046553, 0.017795, 0.196897, -0.042159, 0.027074, 
0.010987, -0.163701, -0.162265, -0.118326, 0.007506, 0.030472, 0.009671, 0.005834, -0.118392, 
0.112440, 0.285927, 0.082940, -0.033574, 0.038504, -0.000585, 0.155931, 0.062317, 0.005731, 
0.028362, -0.197061, -0.090110, -0.054198, 0.089045, -0.043923, 0.054260, 0.044796, 0.052772, 
0.140630, 0.128898, -0.027955, -0.069797, -0.096147, 0.169558, 0.179188, 0.267608, -0.118069, 
-0.024167, -0.064050, 0.081026, 0.020676, -0.035619, -0.029370, 0.085131, -0.040115, 0.070937, 
0.052684, 0.165777, -0.062945, 0.100404, 0.051126, 0.112509, 0.125772, -0.079636, -0.039516, 
0.001707, -0.049423, 0.040091, 0.102945, -0.039523, -0.057401, 0.130714, 0.022203, 0.047474, 
-0.175141, -0.077755, -0.009590, 0.007904, 0.224009, 0.002201, 0.041018, -0.025676, 0.139366, 
0.075395, 0.145164, -0.011698, 0.085864, 0.160914, 0.031404, 0.142565, 0.049749, 0.027169, 
-0.156438, -0.100896, -0.040625, 0.003027, 0.359216, -0.134980, -0.122755, -0.113995, 0.065238, 
-0.132662, -0.092101, 0.091367, -0.012240, 0.147588, -0.079439, 0.001780, 0.115802, -0.113857, 
0.031305, 0.104753, 0.013123, 0.082483, -0.094170, -0.124384, -0.070024, -0.048403, 0.095663, 
-0.085990, -0.084221, 0.097067, 0.049119, -0.010948, -0.038950, -0.045884, -0.173946, -0.030802, 
0.149394, -0.038837, -0.121807, -0.029485, -0.089675, 0.172716, 0.020421, 0.119904, 0.111885, 
-0.073284, 0.141633, 0.021206, 0.006139, 0.033501, -0.130183, 0.020391, -0.128218, 0.180330, 
0.028360, 0.021179, -0.013735, -0.035870, -0.085639, 0.088020, 0.053016, 0.100017, 0.294267, 
0.018247, -0.024860, 0.002501, -0.005594, -0.037072, -0.072172, -0.059304, -0.063405, 0.165131, 
0.095389, 0.111648, -0.026004, -0.014014, -0.015950, 0.042383, -0.056937, -0.109446, 0.112519, 
-0.095101, 0.018270, 0.070621, 0.076275, 0.013822, 0.089676, -0.052664, -0.109568, -0.017304, 
0.099067, 0.127751, 0.057560, -0.131364, 0.054349, -0.043570, -0.068771, -0.108888, 0.191076, 
-0.012611, -0.071097, 0.156214, 0.045212, -0.031761, -0.070684, 0.020629, -0.047337, -0.137936, 
0.079024, -0.030645, 0.087985, 0.001728, -0.011437, 0.137569, 0.139055, 0.037761, 0.206133, 
0.013282, -0.087698, -0.025480, -0.027159, -0.046637, 0.144942, 0.125900, 0.027712, -0.032194, 
0.017843, 0.094567, -0.047990, 0.035957, -0.135339, -0.023892, -0.106206, -0.182082, -0.280488, 
0.021592, 0.030286, -0.050603, 0.020870, 0.056132, 0.081231, 0.049113, 0.120477, -0.091191, 
-0.048795, 0.106302, -0.034451, 0.086159, -0.004030, -0.199935, -0.076736, -0.097013, -0.010382, 
-0.005862, 0.171909, 0.023080, 0.084605, -0.060507, -0.078888, 0.025343, 0.069617, 